{"learner":{"attributes":{"scikit_learn":"{\"_estimator_type\": \"classifier\"}"},"feature_names":[],"feature_types":[],"gradient_booster":{"model":{"cats":{"enc":[],"feature_segments":[],"sorted_idx":[]},"gbtree_model_param":{"num_parallel_tree":"1","num_trees":"500"},"iteration_indptr":[0,1,2,3,4,5,6,7,8,9,10,11,12,13,14,15,16,17,18,19,20,21,22,23,24,25,26,27,28,29,30,31,32,33,34,35,36,37,38,39,40,41,42,43,44,45,46,47,48,49,50,51,52,53,54,55,56,57,58,59,60,61,62,63,64,65,66,67,68,69,70,71,72,73,74,75,76,77,78,79,80,81,82,83,84,85,86,87,88,89,90,91,92,93,94,95,96,97,98,99,100,101,102,103,104,105,106,107,108,109,110,111,112,113,114,115,116,117,118,119,120,121,122,123,124,125,126,127,128,129,130,131,132,133,134,135,136,137,138,139,140,141,142,143,144,145,146,147,148,149,150,151,152,153,154,155,156,157,158,159,160,161,162,163,164,165,166,167,168,169,170,171,172,173,174,175,176,177,178,179,180,181,182,183,184,185,186,187,188,189,190,191,192,193,194,195,196,197,198,199,200,201,202,203,204,205,206,207,208,209,210,211,212,213,214,215,216,217,218,219,220,221,222,223,224,225,226,227,228,229,230,231,232,233,234,235,236,237,238,239,240,241,242,243,244,245,246,247,248,249,250,251,252,253,254,255,256,257,258,259,260,261,262,263,264,265,266,267,268,269,270,271,272,273,274,275,276,277,278,279,280,281,282,283,284,285,286,287,288,289,290,291,292,293,294,295,296,297,298,299,300,301,302,303,304,305,306,307,308,309,310,311,312,313,314,315,316,317,318,319,320,321,322,323,324,325,326,327,328,329,330,331,332,333,334,335,336,337,338,339,340,341,342,343,344,345,346,347,348,349,350,351,352,353,354,355,356,357,358,359,360,361,362,363,364,365,366,367,368,369,370,371,372,373,374,375,376,377,378,379,380,381,382,383,384,385,386,387,388,389,390,391,392,393,394,395,396,397,398,399,400,401,402,403,404,405,406,407,408,409,410,411,412,413,414,415,416,417,418,419,420,421,422,423,424,425,426,427,428,429,430,431,432,433,434,435,436,437,438,439,440,441,442,443,444,445,446,447,448,449,450,451,452,453,454,455,456,457,458,459,460,461,462,463,464,465,466,467,468,469,470,471,472,473,474,475,476,477,478,479,480,481,482,483,484,485,486,487,488,489,490,491,492,493,494,495,496,497,498,499,500],"tree_info":[0,0,0,0,0,0,0,0,0,0,0,0,0,0,0,0,0,0,0,0,0,0,0,0,0,0,0,0,0,0,0,0,0,0,0,0,0,0,0,0,0,0,0,0,0,0,0,0,0,0,0,0,0,0,0,0,0,0,0,0,0,0,0,0,0,0,0,0,0,0,0,0,0,0,0,0,0,0,0,0,0,0,0,0,0,0,0,0,0,0,0,0,0,0,0,0,0,0,0,0,0,0,0,0,0,0,0,0,0,0,0,0,0,0,0,0,0,0,0,0,0,0,0,0,0,0,0,0,0,0,0,0,0,0,0,0,0,0,0,0,0,0,0,0,0,0,0,0,0,0,0,0,0,0,0,0,0,0,0,0,0,0,0,0,0,0,0,0,0,0,0,0,0,0,0,0,0,0,0,0,0,0,0,0,0,0,0,0,0,0,0,0,0,0,0,0,0,0,0,0,0,0,0,0,0,0,0,0,0,0,0,0,0,0,0,0,0,0,0,0,0,0,0,0,0,0,0,0,0,0,0,0,0,0,0,0,0,0,0,0,0,0,0,0,0,0,0,0,0,0,0,0,0,0,0,0,0,0,0,0,0,0,0,0,0,0,0,0,0,0,0,0,0,0,0,0,0,0,0,0,0,0,0,0,0,0,0,0,0,0,0,0,0,0,0,0,0,0,0,0,0,0,0,0,0,0,0,0,0,0,0,0,0,0,0,0,0,0,0,0,0,0,0,0,0,0,0,0,0,0,0,0,0,0,0,0,0,0,0,0,0,0,0,0,0,0,0,0,0,0,0,0,0,0,0,0,0,0,0,0,0,0,0,0,0,0,0,0,0,0,0,0,0,0,0,0,0,0,0,0,0,0,0,0,0,0,0,0,0,0,0,0,0,0,0,0,0,0,0,0,0,0,0,0,0,0,0,0,0,0,0,0,0,0,0,0,0,0,0,0,0,0,0,0,0,0,0,0,0,0,0,0,0,0,0,0,0,0,0,0,0,0,0,0,0,0,0,0,0,0,0,0,0,0,0,0,0,0,0,0,0,0,0,0,0,0,0,0,0,0,0,0,0,0,0,0,0,0,0,0,0,0,0,0,0,0,0,0,0,0,0,0,0,0,0,0,0,0,0,0],"trees":[{"base_weights":[-2.2139441E-2,-5.5506927E-1,1.6150331E0,1.1903231E0,-9.021388E-1,1.0550141E0,1.8259114E0,4.9932796E-1,1.8889645E0,-1.0603181E0,1.8129585E0,1.8684864E0,7.7693605E-1,1.2031603E0,1.8983545E0,1.4178045E0,-9.65096E-1,1.9344146E0,1.108911E-1,-3.0488116E-1,-1.3516473E0,1.3693695E-1,1.8912189E0,3.981279E-1,2.7228916E-1,3.840491E-1,5.928815E-1,-6.743295E-1,3.9808306E-1,1.590406E0,3.9641348E-1,1.6682298E0,-3.904762E-1,2.0382166E-1,-1.7840236E0,1.9682773E0,2.3174603E-1,1.6211181E0,-5.765923E-1,-1.4726537E0,-5.63932E-1,1.9394792E0,2.3773585E-1,-1.0859107E0,8.7223166E-1,1.5049505E-1,-3.1801245E-1,1.0240384E0,1.7803469E0,1.8161954E0,2.1192053E-2,-8.6013985E-1,3.72043E-1,-1.108911E-1,-3.9791667E-1,3.995268E-1,3.0227274E-1,1.8545035E0,-7.128713E-2,-8.1002295E-1,1.3042328E0,-1.521192E0,-3.38843E-1,1.1382694E0,-1.7692307E0,2.6930693E-1,3.960636E-1,-3.7127075E-1,2.882883E-2,1.3731344E0,3.7710437E-1,3.937173E-1,2.0353982E-1,3.9124644E-1,1.1925466E-1,1.9447514E-1,1.9229652E0,1.009009E-1,-3.4772727E-1,1.5049505E-1,3.9843342E-1,9.89605E-1,-9.644508E-1,1.6655844E0,-5.1063832E-2,-1.6180413E0,-1.02185E0,-1.5202312E0,7.2440946E-1,6.403941E-2,1.7402234E0,4.9056605E-2,-1.9149224E0,1.9491525E-1,1.8018868E0,-1.560166E0,1.0998464E0,-3.4851485E-1,3.5873017E-1,3.9896196E-1,1.520362E0,1.6993006E0,-6.122449E-3,-1.1395763E0,5.659722E-1,3.814516E-1,1.2561983E-1,-1.4169809E0,-1.7957436E0,-1.1995013E0,2.228739E-1,-8.6792454E-2,-3.9502075E-1,1.6227758E0,-3.4851485E-1,3.3475178E-1,-7.744361E-1,3.8388792E-1,2E-1,-1.3731344E0,-3.9906323E-1,3.1711712E-1,-2E-1,3.968504E-1,1.5078125E0,-1.9009902E-1,-3.9148936E-1,5.707071E-1,3.7968752E-1,3.9008266E-1,1.9009902E-1,2.2970298E-1,3.935484E-1,-2.555675E-1,1.0025575E-1,2.591133E-1,-2.2923978E-1,-2.9944238E-1,3.0227274E-1,2E-1,-3.6725494E-1,2.076336E-1,-2.659051E-1,3.2707185E-1,-2.68323E-1,1.9009902E-1,3.9337018E-1,-3.1801245E-1,8.6792454E-2,-3.8811883E-1,-1.5049505E-1,3.923077E-1,1.5049505E-1,2.7031252E-1,-1.6453901E-1],"categories":[],"categories_nodes":[],"categories_segments":[],"categories_sizes":[],"default_left":[0,0,0,0,0,0,0,0,0,0,0,0,0,0,0,0,0,0,0,0,0,0,0,0,0,0,0,0,0,0,0,0,0,0,0,0,0,0,0,0,0,0,0,0,0,0,0,0,0,0,0,0,0,0,0,0,0,0,0,0,0,0,0,0,0,0,0,0,0,0,0,0,0,0,0,0,0,0,0,0,0,0,0,0,0,0,0,0,0,0,0,0,0,0,0,0,0,0,0,0,0,0,0,0,0,0,0,0,0,0,0,0,0,0,0,0,0,0,0,0,0,0,0,0,0,0,0,0,0,0,0,0,0,0,0,0,0,0,0,0,0,0,0,0,0,0,0,0,0,0,0,0,0,0,0],"id":0,"left_children":[1,3,5,7,9,11,13,15,17,19,21,23,25,27,29,31,33,35,-1,37,39,-1,41,-1,-1,-1,43,45,-1,47,-1,49,-1,51,53,55,-1,57,59,61,63,65,-1,67,69,-1,-1,71,73,75,-1,77,-1,-1,-1,-1,-1,79,-1,81,83,85,87,89,91,-1,-1,-1,-1,93,95,-1,97,-1,-1,-1,99,-1,-1,-1,-1,101,103,105,-1,107,109,111,113,115,117,-1,119,121,123,125,127,-1,-1,-1,129,131,-1,133,135,-1,-1,137,139,141,143,-1,-1,145,-1,-1,147,-1,-1,149,-1,-1,-1,-1,151,-1,-1,153,-1,-1,-1,-1,-1,-1,-1,-1,-1,-1,-1,-1,-1,-1,-1,-1,-1,-1,-1,-1,-1,-1,-1,-1,-1,-1,-1],"loss_changes":[2.0609353E3,1.0796646E3,6.782898E1,1.421542E2,6.3848474E2,3.5376846E1,1.8260742E1,2.0030075E2,8.352539E0,3.088728E2,6.6429443E0,1.6901245E0,2.4439682E1,6.580854E1,8.841553E0,7.7372375E1,5.5185165E1,2.9852295E0,0E0,2.0461119E2,9.618518E1,0E0,1.8460388E0,0E0,0E0,0E0,4.8097588E1,1.7278101E1,0E0,8.093918E0,0E0,1.9324081E1,0E0,4.1783096E1,7.9789734E0,9.6539307E-1,0E0,2.2624664E1,1.5056741E2,4.7951538E1,2.7781665E2,9.2178345E-1,0E0,1.4144665E1,2.1461388E1,0E0,0E0,1.5665546E1,1.2041382E1,6.336792E0,0E0,1.7434029E1,0E0,0E0,0E0,0E0,0E0,5.9451294E0,0E0,8.488942E1,2.1605377E1,4.0123657E1,4.5811165E1,3.5877586E1,2.363179E1,0E0,0E0,0E0,0E0,2.1582985E1,6.2370266E1,0E0,3.513476E1,0E0,0E0,0E0,1.135376E0,0E0,0E0,0E0,0E0,1.774959E1,7.553992E1,7.155609E0,0E0,2.4420898E1,3.0569412E1,8.023499E0,4.233709E1,2.7643795E1,4.069374E0,0E0,2.4146729E0,1.9804848E1,8.573837E-1,2.2440224E0,1.320652E1,0E0,0E0,0E0,2.0351715E0,1.3780556E0,0E0,5.7482452E1,3.6080795E1,0E0,0E0,7.800604E1,4.2588013E1,3.5128708E1,3.7845837E1,0E0,0E0,2.5730286E0,0E0,0E0,1.3374217E1,0E0,0E0,2.9279728E0,0E0,0E0,0E0,0E0,3.7701645E0,0E0,0E0,2.1704674E1,0E0,0E0,0E0,0E0,0E0,0E0,0E0,0E0,0E0,0E0,0E0,0E0,0E0,0E0,0E0,0E0,0E0,0E0,0E0,0E0,0E0,0E0,0E0,0E0,0E0,0E0,0E0],"parents":[2147483647,0,0,1,1,2,2,3,3,4,4,5,5,6,6,7,7,8,8,9,9,10,10,11,11,12,12,13,13,14,14,15,15,16,16,17,17,19,19,20,20,22,22,26,26,27,27,29,29,31,31,33,33,34,34,35,35,37,37,38,38,39,39,40,40,41,41,43,43,44,44,47,47,48,48,49,49,51,51,57,57,59,59,60,60,61,61,62,62,63,63,64,64,69,69,70,70,72,72,76,76,81,81,82,82,83,83,85,85,86,86,87,87,88,88,89,89,90,90,92,92,93,93,94,94,95,95,96,96,100,100,101,101,103,103,104,104,107,107,108,108,109,109,110,110,113,113,116,116,119,119,124,124,127,127],"right_children":[2,4,6,8,10,12,14,16,18,20,22,24,26,28,30,32,34,36,-1,38,40,-1,42,-1,-1,-1,44,46,-1,48,-1,50,-1,52,54,56,-1,58,60,62,64,66,-1,68,70,-1,-1,72,74,76,-1,78,-1,-1,-1,-1,-1,80,-1,82,84,86,88,90,92,-1,-1,-1,-1,94,96,-1,98,-1,-1,-1,100,-1,-1,-1,-1,102,104,106,-1,108,110,112,114,116,118,-1,120,122,124,126,128,-1,-1,-1,130,132,-1,134,136,-1,-1,138,140,142,144,-1,-1,146,-1,-1,148,-1,-1,150,-1,-1,-1,-1,152,-1,-1,154,-1,-1,-1,-1,-1,-1,-1,-1,-1,-1,-1,-1,-1,-1,-1,-1,-1,-1,-1,-1,-1,-1,-1,-1,-1,-1,-1],"split_conditions":[2.0022371E-1,2.2347514E-1,2.621016E-1,1.1383928E-1,4.633867E-1,5.7407558E-2,1.8666667E-1,1.7215428E-1,2.6277372E-1,2.1232877E-2,4.718398E-1,3.60741E-2,1.5525876E-1,3.970588E-1,1.459111E-1,2.7903226E-1,3.5470176E-2,7.743764E-1,1.108911E-1,2.6957682E-1,3.0444205E-1,1.3693695E-1,6.6227245E-1,3.981279E-1,2.7228916E-1,3.840491E-1,9.894737E-2,3.053435E-1,3.9808306E-1,1.21605664E-1,3.9641348E-1,3.2820153E-1,-3.904762E-1,1.394838E-1,1.9219072E-1,2.1788935E-1,2.3174603E-1,1.382581E-1,4.156701E-1,2.0239775E-1,4.213457E-1,4.405495E-1,2.3773585E-1,1.06771916E-1,2.9448268E-1,1.5049505E-1,-3.1801245E-1,1.0578766E-1,5.066964E-1,4.252782E-2,2.1192053E-2,9.6121415E-2,3.72043E-1,-1.108911E-1,-3.9791667E-1,3.995268E-1,3.0227274E-1,1.01773195E-1,-7.128713E-2,8.6417444E-2,4.7605082E-1,3.0735585E-1,2.5668448E-1,3.292523E-1,2.516E-1,2.6930693E-1,3.960636E-1,-3.7127075E-1,2.882883E-2,1.5579072E-1,2.552827E-1,3.937173E-1,1.0643981E-1,3.9124644E-1,1.1925466E-1,1.9447514E-1,4.732235E-1,1.009009E-1,-3.4772727E-1,1.5049505E-1,3.9843342E-1,3.2042724E-1,3.6709678E-1,3.9596832E-3,-5.1063832E-2,3.5581583E-1,5.416621E-1,7.369247E-1,5.2147317E-1,3.6831275E-1,4.494382E-1,4.9056605E-2,1.0825959E-1,2.7172545E-1,3.04453E-1,6.012753E-1,4.0449437E-1,-3.4851485E-1,3.5873017E-1,3.9896196E-1,7.536388E-1,2.9153946E-1,-6.122449E-3,2.8113106E-1,4.6380526E-1,3.814516E-1,1.2561983E-1,2.4883622E-1,5.571294E-2,2.549514E-1,8.955805E-1,-8.6792454E-2,-3.9502075E-1,6.558978E-1,-3.4851485E-1,3.3475178E-1,2.8878823E-1,3.8388792E-1,2E-1,3.0082377E-2,-3.9906323E-1,3.1711712E-1,-2E-1,3.968504E-1,1.3939899E-1,-1.9009902E-1,-3.9148936E-1,3.788311E-1,3.7968752E-1,3.9008266E-1,1.9009902E-1,2.2970298E-1,3.935484E-1,-2.555675E-1,1.0025575E-1,2.591133E-1,-2.2923978E-1,-2.9944238E-1,3.0227274E-1,2E-1,-3.6725494E-1,2.076336E-1,-2.659051E-1,3.2707185E-1,-2.68323E-1,1.9009902E-1,3.9337018E-1,-3.1801245E-1,8.6792454E-2,-3.8811883E-1,-1.5049505E-1,3.923077E-1,1.5049505E-1,2.7031252E-1,-1.6453901E-1],"split_indices":[4,32,4,48,50,87,2,35,30,117,50,110,34,58,62,29,133,87,0,31,83,0,124,0,0,0,22,68,0,8,0,85,0,28,34,34,0,112,38,154,22,1,0,90,23,0,0,60,12,77,0,55,0,0,0,0,0,68,0,7,61,103,44,84,6,0,0,0,0,22,39,0,95,0,0,0,2,0,0,0,0,28,81,115,0,33,2,1,36,31,28,0,123,33,34,1,74,0,0,0,1,33,0,102,31,0,0,83,7,31,1,0,0,1,0,0,117,0,0,4,0,0,0,0,8,0,0,62,0,0,0,0,0,0,0,0,0,0,0,0,0,0,0,0,0,0,0,0,0,0,0,0,0,0,0],"split_type":[0,0,0,0,0,0,0,0,0,0,0,0,0,0,0,0,0,0,0,0,0,0,0,0,0,0,0,0,0,0,0,0,0,0,0,0,0,0,0,0,0,0,0,0,0,0,0,0,0,0,0,0,0,0,0,0,0,0,0,0,0,0,0,0,0,0,0,0,0,0,0,0,0,0,0,0,0,0,0,0,0,0,0,0,0,0,0,0,0,0,0,0,0,0,0,0,0,0,0,0,0,0,0,0,0,0,0,0,0,0,0,0,0,0,0,0,0,0,0,0,0,0,0,0,0,0,0,0,0,0,0,0,0,0,0,0,0,0,0,0,0,0,0,0,0,0,0,0,0,0,0,0,0,0,0],"sum_hessian":[2.36225E3,1.78225E3,5.8E2,2.955E2,1.48675E3,1.59E2,4.21E2,1.4875E2,1.4675E2,1.405E3,8.175E1,4.025E1,1.1875E2,4.425E1,3.7675E2,9.15E1,5.725E1,1.4175E2,5E0,3.9125E2,1.01375E3,5.5E0,7.625E1,3.2E1,8.25E0,1.625E1,1.025E2,1.3E1,3.125E1,8.125E1,2.955E2,8.525E1,6.25E0,2.35E1,3.375E1,1.355E2,6.25E0,4.825E1,3.43E2,8.785E2,1.3525E2,7.1E1,5.25E0,1.45E1,8.8E1,5E0,8E0,2.075E1,6.05E1,7.775E1,7.5E0,1.425E1,9.25E0,5E0,2.875E1,1.2675E2,8.75E0,4.325E1,5E0,3.0525E2,3.775E1,8.4225E2,3.625E1,5.6E1,7.925E1,5E0,6.6E1,9E0,5.5E0,4.35E1,4.45E1,9.5E0,1.125E1,5.25E1,8E0,9E0,6.875E1,5.5E0,8.75E0,5E0,3.825E1,2.4E1,2.8125E2,3.075E1,7E0,7.05E2,1.3725E2,1.725E1,1.9E1,2.025E1,3.575E1,5.25E0,7.4E1,1.175E1,3.175E1,1.2E1,3.25E1,5E0,6.25E0,5.775E1,1.1E1,1.425E1,9.75E0,2.525E2,2.875E1,2.475E1,6E0,3.315E2,3.735E2,1.2025E2,1.7E1,5.25E0,1.2E1,1.4E1,5E0,7E0,1.325E1,2.85E1,7.25E0,1E1,6.4E1,5.5E0,6.25E0,1.9E1,1.275E1,5E0,7E0,1.975E1,1.275E1,6E0,5E0,5E0,9.25E0,2.33E2,1.95E1,2.025E1,8.5E0,3.2275E2,8.75E0,5.25E0,3.6825E2,6.5E0,1.1375E2,9E0,8E0,5E0,9E0,8E0,5.25E0,5E0,5E0,7.75E0,5E0,1.275E1,7E0],"tree_param":{"num_deleted":"0","num_feature":"187","num_nodes":"155","size_leaf_vector":"1"}},{"base_weights":[8.098163E-3,-4.3592942E-1,1.3155097E0,1.0528667E0,-6.9939345E-1,8.148155E-1,1.5357817E0,1.5136584E0,3.278431E-1,-8.293704E-1,1.467568E0,1.546135E0,5.4614663E-1,1.0636953E0,1.588913E0,1.6046541E0,-2.2991052E-1,-7.638694E-1,1.5292665E0,-2.0400548E-1,-1.0717528E0,8.263185E-1,3.284516E-1,3.2856002E-1,1.8661964E-1,3.935283E-1,3.3960503E-1,-3.889791E-1,3.3721057E-1,1.3384986E0,1.6549543E0,1.6359706E0,1.3517615E-1,-1.1031634E0,1.6585355E-1,1.2989013E-1,3.3642828E-1,9.3878895E-1,-5.074563E-1,-1.1709225E0,-4.390622E-1,3.6974713E-1,4.273424E-4,8.085467E-1,-5.205088E-1,2.064776E-1,-2.9051277E-1,1.4606341E0,5.392377E-1,2.0607829E-1,3.3306804E-1,2.4756978E-1,3.3082917E-1,-1.3380814E0,1.0333996E-1,1.7082648E0,-1.6940375E-1,-7.682415E-1,1.5375483E0,-9.0668905E-1,-1.3345017E0,1.2966433E0,-1.2339115E0,-9.132168E-2,1.368699E0,2.904086E-1,-8.795871E-1,7.3745936E-1,3.277944E-1,-1.2733833E-1,3.5045612E-1,-1.529232E0,-4.2568136E-2,1.7818415E0,2.1016394E-1,-1.2675762E0,7.841522E-1,4.8457894E-1,-9.401554E-1,3.324347E-1,1.577646E-1,-1.2276739E0,4.066912E-1,-1.3695147E0,1.6573493E-1,-0E0,1.5050325E0,1.08572654E-1,-1.44568E0,2.8702238E-1,-6.353062E-1,3.3175227E-1,8.485834E-1,-3.2907677E-1,-2.7941698E-1,3.3784294E-1,-4.3903302E-2,-1.678857E0,-1.4686397E-1,3.2924265E-1,4.1405335E-1,-4.6184625E-2,-3.5489398E-1,1.3432883E-3,3.411766E-1,-3.2097077E-1,9.670947E-1,-1.0552199E0,4.522067E-1,-1.4761717E0,1.5096806E-1,-2.7193916E-1,1.3470529E0,9.885825E-2,-1.4004589E0,1.6479136E0,1.6444397E-1,-3.232005E-2,-1.5681369E0,2.4980818E-1,-1.1991489E0,1.4004911E0,-9.3013845E-2,2.0907371E-1,-2.690532E-1,-3.5167143E-1,-2.615591E-1,3.147845E-1,1.1712012E-2,-2.276757E-1,1.19345084E-1,2.505045E-1,-2.0472758E-1,-3.0969498E-1,4.190169E-2,2.2582972E-1,-2.272377E-1,-1.6537325E-1,2.8259185E-1,-7.813422E-3,3.6124584E-1,-2.92632E-1,-1.1167171E-1,3.4717077E-1,2.3431988E-1,-3.280914E-1,-1.07319705E-1,-3.4948918E-1,1.433783E-2,1.5909684E-1,3.556194E-1],"categories":[],"categories_nodes":[],"categories_segments":[],"categories_sizes":[],"default_left":[0,0,0,0,0,0,0,0,0,0,0,0,0,0,0,0,0,0,0,0,0,0,0,0,0,0,0,0,0,0,0,0,0,0,0,0,0,0,0,0,0,0,0,0,0,0,0,0,0,0,0,0,0,0,0,0,0,0,0,0,0,0,0,0,0,0,0,0,0,0,0,0,0,0,0,0,0,0,0,0,0,0,0,0,0,0,0,0,0,0,0,0,0,0,0,0,0,0,0,0,0,0,0,0,0,0,0,0,0,0,0,0,0,0,0,0,0,0,0,0,0,0,0,0,0,0,0,0,0,0,0,0,0,0,0,0,0,0,0,0,0,0,0,0,0,0,0,0,0,0,0],"id":1,"left_children":[1,3,5,7,9,11,13,15,17,19,21,23,25,27,29,31,-1,33,35,37,39,41,-1,-1,-1,43,-1,45,-1,47,49,51,-1,53,-1,-1,-1,55,57,59,61,-1,-1,63,65,-1,-1,67,69,-1,-1,-1,-1,71,-1,73,75,77,79,81,83,85,87,89,91,-1,93,95,-1,-1,-1,97,-1,99,-1,101,103,105,107,-1,-1,109,111,113,-1,-1,115,-1,117,-1,119,-1,121,-1,123,-1,-1,125,-1,-1,-1,-1,-1,-1,-1,-1,127,129,131,133,135,137,139,-1,141,143,-1,-1,145,-1,147,149,-1,-1,-1,-1,-1,-1,-1,-1,-1,-1,-1,-1,-1,-1,-1,-1,-1,-1,-1,-1,-1,-1,-1,-1,-1,-1,-1,-1,-1],"loss_changes":[1.325929E3,6.685952E2,6.33338E1,8.5201935E1,4.079013E2,3.4377136E1,9.463684E0,3.810141E1,1.3109856E2,2.0688293E2,8.612335E0,2.2176743E0,2.2392689E1,3.752317E1,5.2557373E0,3.8856812E0,0E0,2.8332422E1,5.883003E0,1.324159E2,6.143286E1,1.4695754E1,0E0,0E0,0E0,4.3688763E1,0E0,1.8746675E1,0E0,6.995926E0,1.2209473E0,3.7722778E-1,0E0,1.663171E1,0E0,0E0,0E0,6.857032E1,1.6098364E2,3.6270752E1,1.8462921E2,0E0,0E0,4.020053E1,2.5291489E1,0E0,0E0,7.953644E0,1.5103514E1,0E0,0E0,0E0,0E0,7.7734604E0,0E0,1.6301727E0,3.4428223E1,5.783429E1,2.6252213E0,1.3761578E2,3.9927246E1,1.1327553E1,3.47843E1,2.5052664E1,6.8167953E0,0E0,1.3557541E1,1.2457368E1,0E0,0E0,0E0,3.2833786E0,0E0,7.385254E-1,0E0,7.6348E0,1.2165632E1,3.244395E1,3.7924957E1,0E0,0E0,9.006763E1,4.103557E1,3.0018188E1,0E0,0E0,2.9649658E0,0E0,1.2565857E1,0E0,2.3945766E1,0E0,1.3185383E1,0E0,2.447584E1,0E0,0E0,6.336212E-2,0E0,0E0,0E0,0E0,0E0,0E0,0E0,0E0,1.4164576E1,3.0084763E1,2.125541E1,2.7365265E1,5.036257E1,3.4587456E1,1.7498787E1,0E0,2.6399475E1,5.5675507E-1,0E0,0E0,5.1074066E0,0E0,1.2470716E1,2.3187714E0,0E0,0E0,0E0,0E0,0E0,0E0,0E0,0E0,0E0,0E0,0E0,0E0,0E0,0E0,0E0,0E0,0E0,0E0,0E0,0E0,0E0,0E0,0E0,0E0,0E0,0E0,0E0,0E0,0E0],"parents":[2147483647,0,0,1,1,2,2,3,3,4,4,5,5,6,6,7,7,8,8,9,9,10,10,11,11,12,12,13,13,14,14,15,15,17,17,18,18,19,19,20,20,21,21,25,25,27,27,29,29,30,30,31,31,33,33,37,37,38,38,39,39,40,40,43,43,44,44,47,47,48,48,53,53,55,55,56,56,57,57,58,58,59,59,60,60,61,61,62,62,63,63,64,64,66,66,67,67,71,71,73,73,75,75,76,76,77,77,78,78,81,81,82,82,83,83,86,86,88,88,90,90,92,92,94,94,97,97,106,106,107,107,108,108,109,109,110,110,111,111,112,112,114,114,115,115,118,118,120,120,121,121],"right_children":[2,4,6,8,10,12,14,16,18,20,22,24,26,28,30,32,-1,34,36,38,40,42,-1,-1,-1,44,-1,46,-1,48,50,52,-1,54,-1,-1,-1,56,58,60,62,-1,-1,64,66,-1,-1,68,70,-1,-1,-1,-1,72,-1,74,76,78,80,82,84,86,88,90,92,-1,94,96,-1,-1,-1,98,-1,100,-1,102,104,106,108,-1,-1,110,112,114,-1,-1,116,-1,118,-1,120,-1,122,-1,124,-1,-1,126,-1,-1,-1,-1,-1,-1,-1,-1,128,130,132,134,136,138,140,-1,142,144,-1,-1,146,-1,148,150,-1,-1,-1,-1,-1,-1,-1,-1,-1,-1,-1,-1,-1,-1,-1,-1,-1,-1,-1,-1,-1,-1,-1,-1,-1,-1,-1,-1,-1],"split_conditions":[1.9586723E-1,2.1223122E-1,2.621016E-1,1.6342182E-1,4.7585228E-1,6.2118344E-2,1.8666667E-1,2.7206773E-1,1.10366166E-1,2.4368498E-2,4.9164677E-1,9.2078865E-1,4.373741E-1,3.216146E-1,1.3556457E-1,6.526459E-1,-2.2991052E-1,1.4307153E-1,1.2803063E-1,2.849812E-1,3.0757222E-1,4.988532E-1,3.284516E-1,3.2856002E-1,1.8661964E-1,3.2936978E-1,3.3960503E-1,2.7374223E-1,3.3721057E-1,5.116681E-1,1.7281781E-1,2E-2,1.3517615E-1,7.6317646E-2,1.6585355E-1,1.2989013E-1,3.3642828E-1,3.617367E-2,4.2858207E-1,3.2677644E-1,4.494382E-1,3.6974713E-1,4.273424E-4,1.0384069E-1,1.9837399E-1,2.064776E-1,-2.9051277E-1,1.1010504E-1,6.6921604E-1,2.0607829E-1,3.3306804E-1,2.4756978E-1,3.3082917E-1,1.3619651E-1,1.0333996E-1,8.436597E-1,3.5051547E-2,1.0579797E-1,3.5282838E-1,1.3655706E-1,2.0241547E-1,2.4436536E-1,2.3872182E-1,8.787256E-2,3.04453E-1,2.904086E-1,2.4576892E-1,1.1275563E-1,3.277944E-1,-1.2733833E-1,3.5045612E-1,7.867495E-2,-4.2568136E-2,2.6957682E-1,2.1016394E-1,5.2894212E-2,1.5831435E-1,1.7079388E-1,2.9170638E-1,3.324347E-1,1.577646E-1,1.8276872E-1,3.110048E-1,5.8480985E-2,1.6573493E-1,-0E0,4.1894218E-1,1.08572654E-1,5.650685E-1,2.8702238E-1,1.5525876E-1,3.3175227E-1,1.914812E-1,-3.2907677E-1,3.631579E-1,3.3784294E-1,-4.3903302E-2,3.9908063E-2,-1.4686397E-1,3.2924265E-1,4.1405335E-1,-4.6184625E-2,-3.5489398E-1,1.3432883E-3,3.411766E-1,-3.2097077E-1,3.4865135E-1,5.049407E-1,4.9805766E-1,1.7092599E-1,1.0188088E-1,2.2435363E-1,1.3440861E-1,9.885825E-2,3.4172663E-1,4.2554265E-1,1.6444397E-1,-3.232005E-2,5.013429E-1,2.4980818E-1,3.4993475E-3,2.908705E-1,-9.3013845E-2,2.0907371E-1,-2.690532E-1,-3.5167143E-1,-2.615591E-1,3.147845E-1,1.1712012E-2,-2.276757E-1,1.19345084E-1,2.505045E-1,-2.0472758E-1,-3.0969498E-1,4.190169E-2,2.2582972E-1,-2.272377E-1,-1.6537325E-1,2.8259185E-1,-7.813422E-3,3.6124584E-1,-2.92632E-1,-1.1167171E-1,3.4717077E-1,2.3431988E-1,-3.280914E-1,-1.07319705E-1,-3.4948918E-1,1.433783E-2,1.5909684E-1,3.556194E-1],"split_indices":[4,32,4,34,68,88,2,29,48,117,70,1,71,12,63,84,0,105,48,30,83,32,0,0,0,25,0,67,0,10,3,76,0,16,0,0,0,109,38,32,28,0,0,16,77,0,0,8,5,0,0,0,0,91,0,1,4,6,112,57,163,87,6,6,34,0,42,58,0,0,0,105,0,31,0,5,80,36,104,0,0,3,2,11,0,0,29,0,1,0,34,0,7,0,63,0,0,178,0,0,0,0,0,0,0,0,29,83,23,96,59,88,97,0,42,34,0,0,120,0,119,26,0,0,0,0,0,0,0,0,0,0,0,0,0,0,0,0,0,0,0,0,0,0,0,0,0,0,0,0,0],"split_type":[0,0,0,0,0,0,0,0,0,0,0,0,0,0,0,0,0,0,0,0,0,0,0,0,0,0,0,0,0,0,0,0,0,0,0,0,0,0,0,0,0,0,0,0,0,0,0,0,0,0,0,0,0,0,0,0,0,0,0,0,0,0,0,0,0,0,0,0,0,0,0,0,0,0,0,0,0,0,0,0,0,0,0,0,0,0,0,0,0,0,0,0,0,0,0,0,0,0,0,0,0,0,0,0,0,0,0,0,0,0,0,0,0,0,0,0,0,0,0,0,0,0,0,0,0,0,0,0,0,0,0,0,0,0,0,0,0,0,0,0,0,0,0,0,0,0,0,0,0,0,0],"sum_hessian":[2.2836077E3,1.7045745E3,5.790331E2,2.5615753E2,1.448417E3,1.772573E2,4.017758E2,1.5641628E2,9.974124E1,1.3665715E3,8.184544E1,4.7360203E1,1.298971E2,4.113093E1,3.6064484E2,1.513403E2,5.0759726E0,5.2178913E1,4.7562325E1,3.8197205E2,9.845995E2,1.78293E1,6.401614E1,4.0555134E1,6.805068E0,1.1491245E2,1.4984634E1,1.2245505E1,2.8885427E1,7.6117165E1,2.8452768E2,1.4615869E2,5.181616E0,4.3133575E1,9.045336E0,7.2734294E0,4.02889E1,7.998502E1,3.0198703E2,8.508727E2,1.3372684E2,7.8215995E0,1.0007701E1,7.918369E1,3.5728764E1,5.1613445E0,7.0841603E0,6.577452E1,1.0342643E1,5.050971E0,2.794767E2,7.0124726E0,1.3914622E2,3.77859E1,5.347675E0,4.7297386E1,3.2687637E1,2.679467E2,3.404036E1,3.2593372E2,5.249389E2,4.191476E1,9.181208E1,3.0258722E1,4.892497E1,5.393126E0,3.0335638E1,1.3284206E1,5.2490314E1,5.1800046E0,5.162638E0,3.213181E1,5.6540933E0,4.2186447E1,5.11094E0,1.5281649E1,1.740599E1,3.218012E1,2.3576656E2,2.8901575E1,5.1387844E0,2.6204623E2,6.3887505E1,5.166867E2,8.252243E0,5.8156333E0,3.6099125E1,9.668563E0,8.214352E1,7.8320994E0,2.2426624E1,3.1091572E1,1.7833399E1,1.31440115E1,1.7191628E1,6.74587E0,6.5383363E0,2.6783243E1,5.348565E0,2.9393377E1,1.2793071E1,5.171895E0,1.0109754E1,9.587088E0,7.8189025E0,5.9376383E0,2.6242481E1,2.1791394E2,1.7852615E1,2.2214627E2,3.9899944E1,3.700499E1,2.6882513E1,8.320518E0,5.0836618E2,2.955174E1,6.547385E0,7.3039327E0,7.4839584E1,5.06939E0,1.7357233E1,1.2662441E1,5.1709566E0,7.581545E0,9.610082E0,2.145958E1,5.323663E0,1.5579729E1,1.0662753E1,2.076E2,1.03139305E1,1.1668269E1,6.1843457E0,2.1312741E2,9.018863E0,2.2762783E1,1.7137161E1,2.794528E1,9.05971E0,6.592339E0,2.0290174E1,4.72882E2,3.548419E1,2.4479982E1,5.071759E0,6.972765E1,5.1119304E0,1.2222514E1,5.13472E0,5.1292515E0,7.5331903E0],"tree_param":{"num_deleted":"0","num_feature":"187","num_nodes":"151","size_leaf_vector":"1"}},{"base_weights":[-1.081525E-2,7.154038E-1,-4.4425407E-1,4.6491086E-1,1.4015028E0,1.248186E0,-6.2954867E-1,1.0394431E0,-5.114709E-1,6.237486E-1,1.4456639E0,7.5971866E-1,2.9814038E-1,-7.96394E-1,8.043425E-1,1.3040814E0,3.0793813E-1,-7.558535E-1,1.3572512E0,2.9765102E-1,-1.04561046E-1,1.247787E0,3.0352685E-1,1.2867026E0,-3.278024E-1,-8.487546E-1,1.3928452E0,-4.228366E-2,1.3331336E0,7.45594E-1,1.5172111E0,-8.1936467E-1,9.2781764E-1,-9.300449E-1,1.1915091E0,1.608644E-1,2.968857E-1,1.4436643E0,4.6376038E-1,1.10980384E-1,3.054289E-1,9.253961E-2,-2.9302743E-1,-7.0669615E-1,-1.2126507E0,1.8670642E-1,3.0077887E-1,-1.2230939E0,5.742189E-1,1.5419723E0,1.07794E0,1.4445914E0,1.15350194E-1,1.43758E0,1.6517413E0,1.9074862E-1,-1.1459117E0,1.1809613E0,5.3066436E-2,-1.0636277E0,7.307342E-1,3.569605E-1,-2.5805526E-3,3.0722436E-1,1.1175954E0,-1.08057044E-1,2.963107E-1,-7.752115E-1,1.4958315E0,1.7447166E-1,-1.3027468E0,-1.02891505E-1,-3.0136803E-1,-2.691595E-1,2.971492E-1,3.69145E-1,1.4217193E0,4.320547E-2,2.8059965E-1,1.8565093E-1,3.048334E-1,-1.4605858E0,9.5321614E-1,2.9772955E-1,4.9634375E-2,1.7896551E0,3.0391225E-1,-1.368979E0,-2.1205451E-2,1.5103947E0,6.7321473E-1,-1.2545986E-1,2.6744768E-1,-1.1440021E0,2.6699772E-1,-3.250578E-2,3.385732E-1,1.3631463E-1,3.0061668E-1,-9.014951E-1,2.6762837E-1,1.8302679E0,6.1056506E-2,1.1636541E0,-2.2970729E-1,-3.906719E-1,-1.3421652E0,2.2393481E-1,-2.622468E-1,2.0890439E-1,2.975198E-1,-1.6073936E-1,-3.6322233E-1,1.2942034E0,-7.1849935E-2,3.222524E-1,2.0229053E0,-1.3911824E-1,-3.0767712E-1,1.364671E0,3.521125E-1,-2.274363E-1,2.930735E-1,3.6981493E-1,-1.2471491E0,-9.736774E-1,3.3425143E-1,7.771867E-1,-1.44312E0,4.1263637E-1,2.3827687E-1,1.1944523E-1,3.2975098E-1,-2.540993E-1,1.5287557E-1,-1.391759E0,-7.0610726E-1,3.0764812E-1,1.3465911E-1,4.5725018E-1,2.9879802E-1,2.9516125E-1,2.0427929E-1,-1.5973231E-1,3.1320742E-1,-1.2799798E-1,-2.8193754E-1,-1.9925798E-1,3.3573815E-1,3.0804133E-1,-2.0620354E-1,2.1171415E-1,-2.2057465E-1,-3.1132755E-1,-2.1931536E-1,-2.9865417E-1,-2.4195282E-1,1.00206986E-1,-2.340858E-1],"categories":[],"categories_nodes":[],"categories_segments":[],"categories_sizes":[],"default_left":[0,0,0,0,0,0,0,0,0,0,0,0,0,0,0,0,0,0,0,0,0,0,0,0,0,0,0,0,0,0,0,0,0,0,0,0,0,0,0,0,0,0,0,0,0,0,0,0,0,0,0,0,0,0,0,0,0,0,0,0,0,0,0,0,0,0,0,0,0,0,0,0,0,0,0,0,0,0,0,0,0,0,0,0,0,0,0,0,0,0,0,0,0,0,0,0,0,0,0,0,0,0,0,0,0,0,0,0,0,0,0,0,0,0,0,0,0,0,0,0,0,0,0,0,0,0,0,0,0,0,0,0,0,0,0,0,0,0,0,0,0,0,0,0,0,0,0,0,0,0,0,0,0,0,0,0,0,0,0],"id":2,"left_children":[1,3,5,7,9,11,13,15,17,19,21,23,-1,25,27,29,31,33,35,-1,-1,37,-1,39,41,43,45,47,49,51,53,55,57,59,61,-1,-1,63,65,-1,-1,-1,-1,67,69,-1,-1,71,73,75,77,79,81,83,85,-1,87,89,91,93,95,-1,-1,-1,97,-1,-1,99,101,103,105,-1,-1,107,-1,-1,109,-1,-1,-1,-1,111,113,-1,-1,115,-1,117,-1,119,121,-1,-1,123,-1,-1,-1,-1,-1,125,127,129,-1,131,-1,133,135,-1,-1,-1,-1,-1,-1,137,-1,-1,139,-1,-1,141,-1,-1,-1,143,145,147,149,151,153,-1,-1,-1,-1,-1,-1,155,157,-1,-1,-1,-1,-1,-1,-1,-1,-1,-1,-1,-1,-1,-1,-1,-1,-1,-1,-1,-1,-1,-1],"loss_changes":[6.7886993E2,1.3811441E2,4.2355344E2,3.315024E2,6.936676E0,1.5274155E1,2.913556E2,7.1677246E1,9.982321E1,1.202791E1,2.2499695E0,2.5757372E1,0E0,1.2500525E2,5.7038345E1,3.1983826E1,6.931106E1,6.5662766E1,1.2560234E0,0E0,0E0,8.076187E0,0E0,4.8475914E0,1.3238928E1,5.4658203E1,7.385216E-1,3.558905E1,3.5611572E0,3.3054058E1,1.37677E0,2.0399956E1,1.3939663E1,3.954927E1,1.1660265E1,0E0,0E0,7.102356E-1,1.1806569E1,0E0,0E0,0E0,0E0,1.156463E2,3.756967E1,0E0,0E0,2.9387798E0,2.4781162E1,7.6644135E-1,9.690247E0,9.0828705E-1,5.2841976E1,7.241333E0,5.1620483E-1,0E0,6.595318E0,7.7952194E0,1.2950176E1,3.1788208E1,1.1625021E1,0E0,0E0,0E0,1.2571726E0,0E0,0E0,9.8105194E1,8.729012E0,2.3793774E1,9.717133E0,0E0,0E0,2.3982851E1,0E0,0E0,1.8898392E-1,0E0,0E0,0E0,0E0,2.6344318E0,1.1960993E1,0E0,0E0,5.3552246E-1,0E0,2.274147E0,0E0,3.394928E-1,2.8565208E1,0E0,0E0,2.5097137E1,0E0,0E0,0E0,0E0,0E0,5.93479E1,6.9852646E1,1.8847885E0,0E0,2.3822832E0,0E0,1.2250424E1,8.01004E0,0E0,0E0,0E0,0E0,0E0,0E0,2.6839333E0,0E0,0E0,1.0459061E0,0E0,0E0,1.7021942E-1,0E0,0E0,0E0,1.431486E1,1.4290817E1,3.7568237E1,6.0300137E1,3.281274E1,1.0539627E-1,0E0,0E0,0E0,0E0,0E0,0E0,3.9692688E0,1.128066E1,0E0,0E0,0E0,0E0,0E0,0E0,0E0,0E0,0E0,0E0,0E0,0E0,0E0,0E0,0E0,0E0,0E0,0E0,0E0,0E0,0E0,0E0],"parents":[2147483647,0,0,1,1,2,2,3,3,4,4,5,5,6,6,7,7,8,8,9,9,10,10,11,11,13,13,14,14,15,15,16,16,17,17,18,18,21,21,23,23,24,24,25,25,26,26,27,27,28,28,29,29,30,30,31,31,32,32,33,33,34,34,37,37,38,38,43,43,44,44,47,47,48,48,49,49,50,50,51,51,52,52,53,53,54,54,56,56,57,57,58,58,59,59,60,60,64,64,67,67,68,68,69,69,70,70,73,73,76,76,81,81,82,82,85,85,87,87,89,89,90,90,93,93,99,99,100,100,101,101,103,103,105,105,106,106,113,113,116,116,119,119,123,123,124,124,125,125,126,126,127,127,128,128,135,135,136,136],"right_children":[2,4,6,8,10,12,14,16,18,20,22,24,-1,26,28,30,32,34,36,-1,-1,38,-1,40,42,44,46,48,50,52,54,56,58,60,62,-1,-1,64,66,-1,-1,-1,-1,68,70,-1,-1,72,74,76,78,80,82,84,86,-1,88,90,92,94,96,-1,-1,-1,98,-1,-1,100,102,104,106,-1,-1,108,-1,-1,110,-1,-1,-1,-1,112,114,-1,-1,116,-1,118,-1,120,122,-1,-1,124,-1,-1,-1,-1,-1,126,128,130,-1,132,-1,134,136,-1,-1,-1,-1,-1,-1,138,-1,-1,140,-1,-1,142,-1,-1,-1,144,146,148,150,152,154,-1,-1,-1,-1,-1,-1,156,158,-1,-1,-1,-1,-1,-1,-1,-1,-1,-1,-1,-1,-1,-1,-1,-1,-1,-1,-1,-1,-1,-1],"split_conditions":[2.4961794E-2,3.3442622E-1,1.9365226E-1,3.312794E-1,2.3692636E-1,9.9151105E-2,3.1731254E-1,2.6051358E-3,3.130252E-1,3.241483E-1,4.226705E-1,1.6964692E-1,2.9814038E-1,4.832664E-1,1.5960374E-1,1.2566237E-1,1.10670954E-1,6.812596E-1,3.7508285E-1,2.9765102E-1,-1.04561046E-1,6.201754E-1,3.0352685E-1,9.043672E-2,9.2084005E-2,8.261124E-1,5.2877235E-1,7.566204E-2,9.099457E-1,1.390059E-1,2.4816087E-1,1.6964692E-1,2.4707717E-1,2.9170638E-1,3.0973262E-1,1.608644E-1,2.968857E-1,4.7829896E-1,5.0412285E-1,1.10980384E-1,3.054289E-1,9.253961E-2,-2.9302743E-1,5E-1,2.50069E-1,1.8670642E-1,3.0077887E-1,5.905429E-2,1.552266E-1,1.8936679E-1,3.9423078E-1,1.5133876E-2,1.22786306E-1,2.9536113E-1,3.2643053E-1,1.9074862E-1,1.4755383E-1,1.04686566E-1,2.7440828E-1,4.1361257E-1,2.1386604E-1,3.569605E-1,-2.5805526E-3,3.0722436E-1,2.4365993E-1,-1.08057044E-1,2.963107E-1,3.1098264E-1,2.7440828E-1,2.5846884E-1,3.2115843E-2,-1.02891505E-1,-3.0136803E-1,8.4775084E-1,2.971492E-1,3.69145E-1,2.1250723E-1,4.320547E-2,2.8059965E-1,1.8565093E-1,3.048334E-1,1.1461318E-1,2.6777875E-1,2.9772955E-1,4.9634375E-2,2.8751048E-1,3.0391225E-1,6.350365E-2,-2.1205451E-2,2.2402968E-1,1.1946203E-1,-1.2545986E-1,2.6744768E-1,7.655117E-2,2.6699772E-1,-3.250578E-2,3.385732E-1,1.3631463E-1,3.0061668E-1,2.4097897E-1,6.449753E-1,7.83283E-1,6.1056506E-2,7.641196E-2,-2.2970729E-1,8.83721E-2,9.9378884E-1,2.2393481E-1,-2.622468E-1,2.0890439E-1,2.975198E-1,-1.6073936E-1,-3.6322233E-1,1.1597177E-1,-7.1849935E-2,3.222524E-1,1.8228458E-1,-1.3911824E-1,-3.0767712E-1,1.4323258E-1,3.521125E-1,-2.274363E-1,2.930735E-1,2.2374626E-1,3.7086934E-1,3.6094013E-1,4.4007376E-1,5.4626334E-1,4.3286446E-1,4.1263637E-1,2.3827687E-1,1.1944523E-1,3.2975098E-1,-2.540993E-1,1.5287557E-1,2.1255976E-1,3.1580622E-3,3.0764812E-1,1.3465911E-1,4.5725018E-1,2.9879802E-1,2.9516125E-1,2.0427929E-1,-1.5973231E-1,3.1320742E-1,-1.2799798E-1,-2.8193754E-1,-1.9925798E-1,3.3573815E-1,3.0804133E-1,-2.0620354E-1,2.1171415E-1,-2.2057465E-1,-3.1132755E-1,-2.1931536E-1,-2.9865417E-1,-2.4195282E-1,1.00206986E-1,-2.340858E-1],"split_indices":[113,8,33,29,52,45,3,109,3,31,48,35,0,71,86,47,3,30,3,0,0,29,0,3,68,1,71,5,1,32,25,35,27,104,60,0,0,29,37,0,0,0,0,2,35,0,0,133,23,89,3,80,27,33,2,0,105,61,3,43,5,0,0,0,84,0,0,83,3,31,104,0,0,1,0,0,81,0,0,0,0,55,27,0,0,30,0,5,0,35,50,0,0,5,0,0,0,0,0,3,28,1,0,13,0,95,1,0,0,0,0,0,0,83,0,0,79,0,0,32,0,0,0,42,28,47,2,40,99,0,0,0,0,0,0,46,126,0,0,0,0,0,0,0,0,0,0,0,0,0,0,0,0,0,0,0,0,0,0],"split_type":[0,0,0,0,0,0,0,0,0,0,0,0,0,0,0,0,0,0,0,0,0,0,0,0,0,0,0,0,0,0,0,0,0,0,0,0,0,0,0,0,0,0,0,0,0,0,0,0,0,0,0,0,0,0,0,0,0,0,0,0,0,0,0,0,0,0,0,0,0,0,0,0,0,0,0,0,0,0,0,0,0,0,0,0,0,0,0,0,0,0,0,0,0,0,0,0,0,0,0,0,0,0,0,0,0,0,0,0,0,0,0,0,0,0,0,0,0,0,0,0,0,0,0,0,0,0,0,0,0,0,0,0,0,0,0,0,0,0,0,0,0,0,0,0,0,0,0,0,0,0,0,0,0,0,0,0,0,0,0],"sum_hessian":[2.1567786E3,8.0594244E2,1.3508362E3,5.9066693E2,2.1527551E2,1.331655E2,1.2176707E3,3.7198276E2,2.1868419E2,1.1850606E1,2.0342491E2,4.4522026E1,8.864348E1,1.0908972E3,1.2677339E2,2.729312E2,9.905155E1,1.9351413E2,2.5170055E1,6.8472695E0,5.003336E0,5.5240566E1,1.4818434E2,3.0107483E1,1.4414543E1,1.0655345E3,2.5362675E1,4.86114E1,7.8161995E1,7.5708084E1,1.9722313E2,3.5022137E1,6.402942E1,1.7774379E2,1.5770344E1,5.069254E0,2.01008E1,4.3960526E1,1.1280044E1,7.692385E0,2.2415098E1,8.417676E0,5.996867E0,7.6686224E2,2.9867236E2,5.380321E0,1.9982353E1,1.6768768E1,3.184263E1,4.2415363E1,3.5746628E1,3.571499E1,3.99931E1,1.25191086E2,7.2032036E1,5.336599E0,2.9685537E1,4.9467823E1,1.4561595E1,1.6463959E2,1.3104193E1,1.0660796E1,5.109547E0,3.36267E1,1.0333821E1,5.59126E0,5.6887836E0,7.438461E2,2.3016073E1,1.8077906E1,2.8059448E2,5.036349E0,1.173242E1,1.6443928E1,1.5398703E1,1.1354324E1,3.106104E1,9.980691E0,2.5765936E1,5.189407E0,3.0525583E1,1.3786433E1,2.6206665E1,1.1986395E2,5.3271337E0,3.420412E1,3.782792E1,2.4270979E1,5.414559E0,2.9703272E1,1.9764553E1,9.433484E0,5.1281114E0,1.594076E2,5.231995E0,6.7090507E0,6.3951416E0,5.1574726E0,5.176349E0,6.636763E2,8.0169876E1,1.7816418E1,5.1996565E0,1.0433908E1,7.6439977E0,1.1857255E1,2.687372E2,6.9652643E0,9.478663E0,5.1950617E0,2.5865978E1,5.096126E0,8.690307E0,2.0923645E1,5.28302E0,2.009104E1,1.4113079E1,5.167231E0,1.9103746E1,1.9478933E1,1.0224337E1,5.9323735E0,1.3832179E1,1.0036764E1,1.4937083E2,6.272121E2,3.646418E1,6.188206E1,1.8287811E1,1.2745395E1,5.0710225E0,5.0551295E0,5.3787785E0,6.8259487E0,5.0313067E0,2.489524E2,1.9784815E1,1.4735953E1,6.187692E0,9.0585785E0,5.0545E0,1.415021E1,5.328724E0,5.001093E0,5.035671E0,3.1854889E1,1.17515945E2,6.2201575E2,5.196321E0,1.9436138E1,1.7028042E1,5.3937584E1,7.9444804E0,1.3209143E1,5.078668E0,1.5887628E2,9.007612E1,5.375338E0,1.4409476E1],"tree_param":{"num_deleted":"0","num_feature":"187","num_nodes":"159","size_leaf_vector":"1"}},{"base_weights":[1.0650237E-2,-3.041685E-1,1.05674E0,6.838082E-1,-5.2909863E-1,6.34836E-1,1.2220525E0,3.050291E-1,1.3280576E0,-6.305668E-1,1.2235067E0,1.3144555E0,4.535814E-1,1.0700355E0,1.3242997E0,1.1936158E0,-2.1360676E-1,1.3741257E0,7.3550634E-2,3.0096324E-2,-7.608292E-1,6.867373E-1,1.3340062E0,1.9357131E-1,2.7629656E-1,2.6234677E-1,1.268575E0,4.062269E-1,1.1409432E0,9.908211E-1,1.3518107E0,2.727925E-1,6.40119E-1,3.044691E-1,-1.1151631E0,2.784292E-1,1.9771864E-1,1.200357E0,-4.954792E-1,-9.5539945E-1,-4.6900478E-1,2.4684444E-1,5.374978E-3,2.7709603E-1,1.5771474E-1,2.7415034E-1,1.00710444E-1,2.764295E-1,1.8112436E-1,2.6281387E-1,-1.9052032E-1,7.821346E-1,1.2517037E0,2.8143907E-1,2.483508E-2,2.7235135E-1,1.9052498E-1,-9.476855E-2,2.831726E-1,-8.268331E-1,8.244437E-1,-1.3629041E0,1.2227585E-1,1.4463793E0,-1.2401744E-1,-1.0871401E0,3.1294048E-1,-8.019318E-2,-1.0032524E0,-6.35077E-1,2.9849762E-1,-8.90286E-1,3.0595654E-1,2.739734E-1,3.2823652E-1,1.4936352E-1,1.2806377E0,4.886829E-2,-1.3653597E0,1.0820931E0,-9.402186E-2,-1.0166631E-1,-2.9937795E-1,1.5371218E0,1.2031373E-1,1.6071478E-1,-1.2262778E0,8.349293E-1,-8.242718E-1,7.392421E-1,-5.126283E-1,-5.1948464E-1,-1.0667665E0,-7.5117654E-1,1.6386494E-2,6.9791335E-1,-1.132055E0,-2.941145E-1,-0E0,7.178303E-1,-3.3946538E-1,-1.2763418E-1,2.1088329E-1,2.7464217E-1,1.067002E0,-2.1739915E-1,-3.4605616E-1,1.3710802E0,-9.429991E-2,1.3546761E0,1.7653457E0,-1.3490182E0,2.0099055E-2,1.2549641E0,-1.2961434E-1,-3.091341E-1,1.8383038E-1,-4.7870516E-3,3.1774566E-1,6.2990986E-2,-8.3802974E-1,-1.8898264E-1,-1.2967063E0,-6.9997233E-1,-1.1472996E0,-5.345826E-1,-1.1813962E0,-2.3918878E-1,2.7856648E-1,1.1122789E0,-2.3378263E-1,-1.0701316E-1,-2.8320026E-1,-0E0,1.239685E0,-1.3223796E0,4.9635693E-1,-3.826567E-2,2.761826E-1,3.1232235E-1,3.9277222E-2,2.906008E-1,1.908851E-1,2.6330087E-1,3.7933567E-1,-1.4807115E-1,-2.8511903E-1,1.272881E-1,2.8964096E-1,1.3525036E-1,-1.6168556E-1,-2.6591083E-1,-5.635081E-2,-1.791676E-1,2.545534E-1,-2.9068738E-1,-1.6279002E-1,-2.0606351E-1,2.7402577E-1,-5.3336993E-3,-2.3701973E-1,-1.2589915E-1,2.4109237E-1,5.694999E-2,-2.537637E-1,5.0384253E-2,-2.123303E-1,3.365716E-1,1.5944573E-1,1.7200388E-1,-1.3733773E-1,1.1785425E-1,2.8564247E-1,-2.0260537E-1,-3.107911E-1,2.4572721E-1,-1.0421027E-1],"categories":[],"categories_nodes":[],"categories_segments":[],"categories_sizes":[],"default_left":[0,0,0,0,0,0,0,0,0,0,0,0,0,0,0,0,0,0,0,0,0,0,0,0,0,0,0,0,0,0,0,0,0,0,0,0,0,0,0,0,0,0,0,0,0,0,0,0,0,0,0,0,0,0,0,0,0,0,0,0,0,0,0,0,0,0,0,0,0,0,0,0,0,0,0,0,0,0,0,0,0,0,0,0,0,0,0,0,0,0,0,0,0,0,0,0,0,0,0,0,0,0,0,0,0,0,0,0,0,0,0,0,0,0,0,0,0,0,0,0,0,0,0,0,0,0,0,0,0,0,0,0,0,0,0,0,0,0,0,0,0,0,0,0,0,0,0,0,0,0,0,0,0,0,0,0,0,0,0,0,0,0,0,0,0,0,0,0,0,0,0,0,0,0,0,0,0],"id":3,"left_children":[1,3,5,7,9,11,13,15,17,19,21,23,25,27,29,31,33,35,-1,37,39,41,43,-1,-1,45,47,49,51,53,55,-1,57,59,61,-1,-1,63,65,67,69,-1,-1,-1,-1,-1,71,-1,-1,-1,-1,73,75,-1,-1,-1,-1,-1,-1,77,79,81,-1,83,-1,85,87,89,91,93,95,97,99,-1,101,-1,103,-1,105,107,-1,-1,-1,109,-1,-1,111,113,115,117,119,121,123,125,127,129,131,-1,-1,133,135,-1,-1,-1,137,-1,-1,139,-1,141,143,145,-1,147,149,-1,-1,-1,-1,-1,151,153,155,157,159,161,163,165,-1,167,-1,-1,-1,169,171,173,175,-1,-1,-1,-1,-1,-1,-1,-1,-1,-1,-1,-1,-1,-1,-1,-1,-1,-1,-1,-1,-1,-1,-1,-1,-1,-1,-1,-1,-1,-1,-1,-1,-1,-1,-1,-1,-1,-1,-1,-1],"loss_changes":[6.566506E2,3.4047247E2,3.1763062E1,6.895509E1,2.218952E2,1.56683235E1,4.595642E0,8.274905E1,4.268753E0,1.0170163E2,3.5963974E0,9.4638824E-2,1.5758249E1,5.9824677E0,1.2710876E0,5.7933884E0,5.2956013E1,1.492157E-1,0E0,1.19581314E2,5.5675415E1,4.1024003E0,1.0887451E0,0E0,0E0,1.4718049E1,2.79459E-1,1.6539627E1,4.349762E0,5.367792E0,1.9174194E-1,0E0,1.399655E1,4.2185787E1,1.7894848E1,0E0,0E0,2.7217575E1,6.421402E1,2.453479E1,5.041308E1,0E0,0E0,0E0,0E0,0E0,1.482097E1,0E0,0E0,0E0,0E0,7.395815E0,8.889923E-1,0E0,0E0,0E0,0E0,0E0,0E0,1.32017565E1,1.6571045E1,3.718521E0,0E0,3.6069946E0,0E0,2.0512444E1,3.3562374E1,1.0928081E1,1.686847E1,2.4720871E1,3.999008E1,6.134033E0,1.6300846E1,0E0,1.1813152E1,0E0,1.1486511E0,0E0,8.7467194E-1,1.8714138E1,0E0,0E0,0E0,1.2477951E0,0E0,0E0,1.2026085E1,1.5975012E1,2.2423283E1,7.1476254E0,5.618098E0,1.6510393E1,1.4206177E1,2.5345001E1,1.7460642E1,4.2534702E1,2.1491241E0,0E0,0E0,1.389196E1,1.9589281E1,0E0,0E0,0E0,1.0922731E1,0E0,0E0,7.437065E0,0E0,5.228081E-1,4.4654846E-1,2.6039963E0,0E0,2.7900505E0,6.447595E0,0E0,0E0,0E0,0E0,0E0,3.7186298E0,4.7698566E1,9.512367E-1,6.1312344E1,1.6919495E1,3.0308857E1,1.2016647E1,1.6812202E1,0E0,7.536045E0,0E0,0E0,0E0,9.43479E0,2.2019691E0,1.938324E-1,9.622414E0,0E0,0E0,0E0,0E0,0E0,0E0,0E0,0E0,0E0,0E0,0E0,0E0,0E0,0E0,0E0,0E0,0E0,0E0,0E0,0E0,0E0,0E0,0E0,0E0,0E0,0E0,0E0,0E0,0E0,0E0,0E0,0E0,0E0,0E0,0E0,0E0,0E0,0E0,0E0,0E0],"parents":[2147483647,0,0,1,1,2,2,3,3,4,4,5,5,6,6,7,7,8,8,9,9,10,10,11,11,12,12,13,13,14,14,15,15,16,16,17,17,19,19,20,20,21,21,22,22,25,25,26,26,27,27,28,28,29,29,30,30,32,32,33,33,34,34,37,37,38,38,39,39,40,40,46,46,51,51,52,52,59,59,60,60,61,61,63,63,65,65,66,66,67,67,68,68,69,69,70,70,71,71,72,72,74,74,76,76,78,78,79,79,83,83,86,86,87,87,88,88,89,89,90,90,91,91,92,92,93,93,94,94,95,95,96,96,99,99,100,100,104,104,107,107,109,109,110,110,111,111,113,113,114,114,120,120,121,121,122,122,123,123,124,124,125,125,126,126,127,127,129,129,133,133,134,134,135,135,136,136],"right_children":[2,4,6,8,10,12,14,16,18,20,22,24,26,28,30,32,34,36,-1,38,40,42,44,-1,-1,46,48,50,52,54,56,-1,58,60,62,-1,-1,64,66,68,70,-1,-1,-1,-1,-1,72,-1,-1,-1,-1,74,76,-1,-1,-1,-1,-1,-1,78,80,82,-1,84,-1,86,88,90,92,94,96,98,100,-1,102,-1,104,-1,106,108,-1,-1,-1,110,-1,-1,112,114,116,118,120,122,124,126,128,130,132,-1,-1,134,136,-1,-1,-1,138,-1,-1,140,-1,142,144,146,-1,148,150,-1,-1,-1,-1,-1,152,154,156,158,160,162,164,166,-1,168,-1,-1,-1,170,172,174,176,-1,-1,-1,-1,-1,-1,-1,-1,-1,-1,-1,-1,-1,-1,-1,-1,-1,-1,-1,-1,-1,-1,-1,-1,-1,-1,-1,-1,-1,-1,-1,-1,-1,-1,-1,-1,-1,-1,-1,-1],"split_conditions":[2.0289855E-1,2.337199E-1,2.621016E-1,1.2965919E-1,4.633867E-1,4.0505204E-2,1.9795758E-1,1.5244399E-1,2.8962347E-1,3.2717925E-3,4.8992443E-1,7.929883E-2,3.859961E-1,2.1365313E-1,3.9417902E-1,1.2710911E-1,1.36344265E-2,2.9339206E-1,7.3550634E-2,3.4114054E-1,9.99767E-1,5.788656E-1,7.004765E-1,1.9357131E-1,2.7629656E-1,1.4285715E-1,6.2030077E-1,1.326506E-1,1.4390992E-1,5.039524E-1,4.0348268E-1,2.727925E-1,8.331602E-2,1.6617792E-2,1.8135159E-1,2.784292E-1,1.9771864E-1,1.17114395E-1,3.2614213E-1,9.139573E-1,3.2581288E-1,2.4684444E-1,5.374978E-3,2.7709603E-1,1.5771474E-1,2.7415034E-1,1.3218391E-1,2.764295E-1,1.8112436E-1,2.6281387E-1,-1.9052032E-1,1.6985646E-1,5.852321E-1,2.8143907E-1,2.483508E-2,2.7235135E-1,1.9052498E-1,-9.476855E-2,2.831726E-1,1.0973423E-1,2.9339206E-1,1.866773E-1,1.2227585E-1,3.4928572E-1,-1.2401744E-1,9.196515E-2,4.7858474E-1,6.2360585E-1,9.7145676E-4,2.7938282E-1,4.9521002E-1,7.336035E-2,3.2936978E-1,2.739734E-1,1.3746995E-1,1.4936352E-1,4.271323E-1,4.886829E-2,9.311127E-2,1.0453285E-1,-9.402186E-2,-1.0166631E-1,-2.9937795E-1,2.888725E-1,1.2031373E-1,1.6071478E-1,2.647506E-1,3.7893984E-1,3.530928E-1,1.4022517E-1,9.267348E-2,3.609566E-1,2.9679057E-1,2.7225881E-3,9.777841E-2,5.2165157E-1,3.5398915E-1,-2.941145E-1,-0E0,1.2991095E-1,3.0555555E-1,-1.2763418E-1,2.1088329E-1,2.7464217E-1,4.0532365E-1,-2.1739915E-1,-3.4605616E-1,2.3740554E-1,-9.429991E-2,1.23098694E-1,1.9674039E-1,3.6677882E-1,2.0099055E-2,3.3286902E-1,4.3925235E-1,-3.091341E-1,1.8383038E-1,-4.7870516E-3,3.1774566E-1,6.2990986E-2,2.452911E-1,1.9878311E-1,3.686327E-1,1.7543541E-1,6.056338E-2,2.6904473E-1,9.7145676E-4,2.9546613E-1,2.7856648E-1,4.4673538E-1,-2.3378263E-1,-1.0701316E-1,-2.8320026E-1,7.105637E-2,2.5689937E-2,1.7953461E-1,3.631579E-1,-3.826567E-2,2.761826E-1,3.1232235E-1,3.9277222E-2,2.906008E-1,1.908851E-1,2.6330087E-1,3.7933567E-1,-1.4807115E-1,-2.8511903E-1,1.272881E-1,2.8964096E-1,1.3525036E-1,-1.6168556E-1,-2.6591083E-1,-5.635081E-2,-1.791676E-1,2.545534E-1,-2.9068738E-1,-1.6279002E-1,-2.0606351E-1,2.7402577E-1,-5.3336993E-3,-2.3701973E-1,-1.2589915E-1,2.4109237E-1,5.694999E-2,-2.537637E-1,5.0384253E-2,-2.123303E-1,3.365716E-1,1.5944573E-1,1.7200388E-1,-1.3733773E-1,1.1785425E-1,2.8564247E-1,-2.0260537E-1,-3.107911E-1,2.4572721E-1,-1.0421027E-1],"split_indices":[4,32,4,50,50,88,80,33,24,108,51,20,82,3,1,33,137,3,0,29,0,33,97,0,0,37,31,89,47,33,145,0,43,104,3,0,0,111,38,0,42,0,0,0,0,0,41,0,0,0,0,33,1,0,0,0,0,0,0,60,3,36,0,91,0,83,60,1,4,105,23,21,25,0,21,0,16,0,6,126,0,0,0,30,0,0,97,87,70,102,106,19,33,140,136,41,88,0,0,93,38,0,0,0,46,0,0,27,0,102,38,28,0,40,85,0,0,0,0,0,82,46,69,87,80,3,4,25,0,36,0,0,0,113,109,95,63,0,0,0,0,0,0,0,0,0,0,0,0,0,0,0,0,0,0,0,0,0,0,0,0,0,0,0,0,0,0,0,0,0,0,0,0,0,0,0,0],"split_type":[0,0,0,0,0,0,0,0,0,0,0,0,0,0,0,0,0,0,0,0,0,0,0,0,0,0,0,0,0,0,0,0,0,0,0,0,0,0,0,0,0,0,0,0,0,0,0,0,0,0,0,0,0,0,0,0,0,0,0,0,0,0,0,0,0,0,0,0,0,0,0,0,0,0,0,0,0,0,0,0,0,0,0,0,0,0,0,0,0,0,0,0,0,0,0,0,0,0,0,0,0,0,0,0,0,0,0,0,0,0,0,0,0,0,0,0,0,0,0,0,0,0,0,0,0,0,0,0,0,0,0,0,0,0,0,0,0,0,0,0,0,0,0,0,0,0,0,0,0,0,0,0,0,0,0,0,0,0,0,0,0,0,0,0,0,0,0,0,0,0,0,0,0,0,0,0,0],"sum_hessian":[1.993351E3,1.5321097E3,4.6124124E2,2.8394162E2,1.2481681E3,1.3025684E2,3.309844E2,1.7905333E2,1.04888275E2,1.1799976E3,6.817055E1,2.7127079E1,1.0312975E2,1.3411574E2,1.9686865E2,6.610875E1,1.1294459E2,9.986757E1,5.020703E0,1.9409454E2,9.85903E2,1.2008412E1,5.6162136E1,5.004513E0,2.2122566E1,8.378214E1,1.934761E1,1.3248245E1,1.2086749E2,1.5698425E1,1.8117023E2,5.021868E1,1.5890071E1,7.160711E1,4.1337475E1,9.4787766E1,5.0798044E0,6.025205E1,1.338425E2,5.910373E2,3.948657E2,6.373627E0,5.6347847E0,5.0913593E1,5.248545E0,1.0457756E1,7.332439E1,1.4209764E1,5.1378474E0,8.031308E0,5.2169375E0,2.9030859E1,9.183663E1,1.0426919E1,5.271506E0,1.7615948E2,5.0107436E0,6.425192E0,9.464879E0,2.2418127E1,4.9188984E1,3.6260796E1,5.0766788E0,5.3184597E1,7.0674496E0,7.74148E1,5.6427685E1,3.0863997E1,5.6017334E2,3.248449E2,7.002076E1,1.2384857E1,6.093953E1,1.24144335E1,1.6616426E1,5.425025E0,8.6411606E1,7.38489E0,1.5033237E1,4.1159817E1,8.029166E0,5.1494627E0,3.1111332E1,4.7775265E1,5.409332E0,5.191559E0,7.222324E1,3.8805046E1,1.762264E1,1.0489374E1,2.0374624E1,6.542891E1,4.9474442E2,2.759638E2,4.8881107E1,5.4867077E1,1.5153685E1,7.3439417E0,5.0409155E0,3.7386032E1,2.35535E1,7.0134726E0,9.602954E0,5.9445133E1,2.6966476E1,8.951774E0,6.0814643E0,3.481788E1,6.3419394E0,2.7230177E1,2.054509E1,6.6244804E1,5.9784384E0,2.7166851E1,1.1638193E1,1.2550039E1,5.0726023E0,5.426957E0,5.0624166E0,5.5772243E0,1.47973995E1,4.613161E1,1.9297297E1,8.960401E1,4.0514038E2,1.8393753E2,9.202628E1,4.11386E1,7.74251E0,4.5004997E1,9.862081E0,5.157905E0,9.995779E0,1.5844676E1,2.1541355E1,1.0920885E1,1.2632614E1,5.260769E0,2.1705708E1,2.9798014E1,5.019865E0,2.135322E1,5.8769565E0,5.1202416E0,1.5424849E1,7.754459E0,5.849035E1,6.764555E0,2.0402296E1,5.1864996E0,6.451694E0,7.6281433E0,7.1692557E0,3.1200315E1,1.4931294E1,1.4179117E1,5.1181803E0,7.737784E1,1.22261715E1,1.339497E1,3.9174542E2,1.7456262E2,9.374907E0,5.0434074E0,8.698288E1,2.5627426E1,1.5511171E1,1.5706849E1,2.9298147E1,7.0976076E0,8.747067E0,5.125536E0,1.641582E1,5.160096E0,5.760789E0,7.4538827E0,5.178731E0],"tree_param":{"num_deleted":"0","num_feature":"187","num_nodes":"177","size_leaf_vector":"1"}},{"base_weights":[1.9059494E-2,-2.7353045E-1,1.0197194E0,7.247792E-1,-4.4968304E-1,6.1275035E-1,1.1326513E0,3.804245E-1,2.5574237E-1,-5.30407E-1,1.1921712E0,1.1793492E0,3.770169E-1,5.278076E-1,1.1871388E0,9.3643594E-1,-3.8217628E-1,-8.5759535E-2,-7.0234674E-1,7.766556E-1,2.5597546E-1,2.6352522E-1,1.5655665E-1,-3.4858423E-1,5.9773684E-1,-8.091953E-1,2.6456127E-1,7.702599E-1,1.2389481E0,1.1128798E0,-2.2899829E-1,2.8644142E-1,-1.0631341E0,1.185569E0,-2.1210827E-1,-7.928828E-1,-2.0897356E-1,2.4100344E-1,6.194668E-2,8.386062E-2,-1.5556432E-1,1.0223867E0,1.9591506E-1,-5.6765374E-2,-2.5716406E-1,2.552082E-1,3.5633898E-1,9.803113E-1,1.2683259E0,2.58125E-1,4.4870102E-1,1.339856E0,-8.9767516E-1,-2.6740646E-1,-1.1975762E-2,9.185201E-2,2.6584342E-1,-3.570361E-1,1.2132387E0,-5.581617E-1,-9.544401E-1,-3.5958642E-1,1.3102502E0,2.8575128E-1,4.5064238E-1,-1.4879148E-1,6.475839E-1,2.1982217E-1,-9.6461795E-2,2.4566066E-1,8.67784E-2,1.8520233E-1,2.553994E-1,2.5268576E-1,-1.341908E-1,1.9404256E-1,3.0168208E-1,-3.1358233E-1,2.5356282E-2,4.704801E-1,-4.9169832E-1,2.7934885E-1,9.050941E-2,-9.0947104E-1,5.604166E-1,3.0221114E-1,-9.9126995E-1,3.116029E-1,-7.1940416E-1,3.7237814E-1,1.1205222E-1,-7.37107E-2,2.640201E-1,2.7470967E-1,1.981658E-1,-1.961342E-1,8.0745244E-1,-8.725203E-1,-2.1557872E-1,-1.0877235E0,1.8575568E-1,1.3484911E0,-1.02723695E-1,-1.0275471E0,1.7808835E-1,3.9619586E-1,4.2581703E-3,-1.1112082E0,-1.5655078E-2,-1.2205564E-1,2.420539E-1,2.2626078E-1,-8.446092E-2,-2.1447225E-1,2.957735E-2,2.9574972E-1,-1.0920868E-1,-2.2877155E-1,1.8069302E-1,3.464435E-1,-9.034482E-2,-9.020755E-2,3.4679267E-1,-1.5483274E-1,2.4176815E-1,1.3233696E-1,-2.1129616E-1,-6.275381E-2,3.3419767E-1,-2.4870758E-1,-1.0004806E-1,2.701063E-1,-2.118185E-1],"categories":[],"categories_nodes":[],"categories_segments":[],"categories_sizes":[],"default_left":[0,0,0,0,0,0,0,0,0,0,0,0,0,0,0,0,0,0,0,0,0,0,0,0,0,0,0,0,0,0,0,0,0,0,0,0,0,0,0,0,0,0,0,0,0,0,0,0,0,0,0,0,0,0,0,0,0,0,0,0,0,0,0,0,0,0,0,0,0,0,0,0,0,0,0,0,0,0,0,0,0,0,0,0,0,0,0,0,0,0,0,0,0,0,0,0,0,0,0,0,0,0,0,0,0,0,0,0,0,0,0,0,0,0,0,0,0,0,0,0,0,0,0,0,0,0,0,0,0,0,0,0,0],"id":4,"left_children":[1,3,5,7,9,11,13,15,-1,17,19,21,23,25,27,29,31,33,35,37,-1,-1,-1,39,41,43,-1,45,47,49,-1,51,53,55,57,59,61,-1,-1,-1,-1,63,65,-1,-1,-1,67,69,71,-1,73,75,77,-1,-1,-1,-1,79,81,83,85,87,89,-1,91,-1,93,-1,-1,-1,-1,-1,-1,-1,-1,-1,-1,-1,-1,95,97,-1,-1,99,101,-1,103,105,107,-1,-1,-1,-1,-1,109,-1,111,113,115,117,119,121,123,125,-1,-1,127,129,131,-1,-1,-1,-1,-1,-1,-1,-1,-1,-1,-1,-1,-1,-1,-1,-1,-1,-1,-1,-1,-1,-1,-1,-1],"loss_changes":[5.3838525E2,2.5007573E2,1.8738647E1,4.0305916E1,1.6015738E2,1.1803837E1,1.0344666E1,5.599105E1,0E0,8.7961975E1,1.6003494E0,9.774475E-1,1.038945E1,2.9144066E1,5.9872437E0,2.8100792E1,2.5410809E1,5.1509575E1,3.690561E1,1.7550998E0,0E0,0E0,0E0,4.9869747E0,8.223757E0,2.1985588E0,0E0,6.664734E0,1.4983826E0,7.9467773E0,0E0,3.4903763E1,7.3072987E0,2.6327705E0,6.035531E1,2.6279877E1,2.940572E1,0E0,0E0,0E0,0E0,5.145088E0,1.0970369E1,0E0,0E0,0E0,1.1805668E1,3.4217587E0,2.0291138E-1,0E0,1.4025955E1,3.566208E-1,9.264299E0,0E0,0E0,0E0,0E0,2.9661148E1,3.3559113E0,1.1275822E2,3.765915E1,2.8528435E1,4.241129E0,0E0,7.484999E0,0E0,5.4198627E0,0E0,0E0,0E0,0E0,0E0,0E0,0E0,0E0,0E0,0E0,0E0,0E0,1.8122492E1,2.3856216E1,0E0,0E0,4.281462E1,3.6011047E1,0E0,2.7996368E1,2.0604116E1,2.0966599E1,0E0,0E0,0E0,0E0,0E0,9.247203E0,0E0,1.2196079E1,1.9757568E1,7.43999E1,2.1105972E1,3.0310135E1,2.2080238E1,3.259811E1,1.973462E1,0E0,0E0,1.8701439E1,3.5970612E0,3.9530254E1,0E0,0E0,0E0,0E0,0E0,0E0,0E0,0E0,0E0,0E0,0E0,0E0,0E0,0E0,0E0,0E0,0E0,0E0,0E0,0E0,0E0,0E0,0E0,0E0],"parents":[2147483647,0,0,1,1,2,2,3,3,4,4,5,5,6,6,7,7,9,9,10,10,11,11,12,12,13,13,14,14,15,15,16,16,17,17,18,18,19,19,23,23,24,24,25,25,27,27,28,28,29,29,31,31,32,32,33,33,34,34,35,35,36,36,41,41,42,42,46,46,47,47,48,48,50,50,51,51,52,52,57,57,58,58,59,59,60,60,61,61,62,62,64,64,66,66,79,79,80,80,83,83,84,84,86,86,87,87,88,88,94,94,96,96,97,97,98,98,99,99,100,100,101,101,102,102,103,103,106,106,107,107,108,108],"right_children":[2,4,6,8,10,12,14,16,-1,18,20,22,24,26,28,30,32,34,36,38,-1,-1,-1,40,42,44,-1,46,48,50,-1,52,54,56,58,60,62,-1,-1,-1,-1,64,66,-1,-1,-1,68,70,72,-1,74,76,78,-1,-1,-1,-1,80,82,84,86,88,90,-1,92,-1,94,-1,-1,-1,-1,-1,-1,-1,-1,-1,-1,-1,-1,96,98,-1,-1,100,102,-1,104,106,108,-1,-1,-1,-1,-1,110,-1,112,114,116,118,120,122,124,126,-1,-1,128,130,132,-1,-1,-1,-1,-1,-1,-1,-1,-1,-1,-1,-1,-1,-1,-1,-1,-1,-1,-1,-1,-1,-1,-1,-1],"split_conditions":[2.0289855E-1,2.1956642E-1,2.4605042E-1,1.2630014E-1,4.7297296E-1,5.7298362E-2,1.3250148E-1,1.5662651E-1,2.5574237E-1,9.418788E-3,4.9964312E-1,2.0852391E-1,8.057272E-2,4.045139E-1,1.0080645E-1,2.7526003E-1,5.053742E-3,2.5846884E-1,4.2151898E-1,5.928237E-2,2.5597546E-1,2.6352522E-1,1.5655665E-1,1.0776439E-1,3.448148E-1,2.4838012E-1,2.6456127E-1,6.6021127E-1,8.816789E-2,4.812362E-1,-2.2899829E-1,2.5606292E-1,1.5252803E-1,1.2593703E-1,4.3568465E-1,3.442288E-1,4.6183044E-1,2.4100344E-1,6.194668E-2,8.386062E-2,-1.5556432E-1,5.5813503E-1,4.1405654E-1,-5.6765374E-2,-2.5716406E-1,2.552082E-1,8.881489E-2,5.116681E-1,1.0071942E-1,2.58125E-1,9.53185E-2,7.664034E-2,1.3988775E-1,-2.6740646E-1,-1.1975762E-2,9.185201E-2,2.6584342E-1,1.0579797E-1,4.854288E-1,1.5082742E-1,4.901961E-2,2.6490065E-1,2.7987987E-1,2.8575128E-1,1.5517241E-1,-1.4879148E-1,2.0567375E-1,2.1982217E-1,-9.6461795E-2,2.4566066E-1,8.67784E-2,1.8520233E-1,2.553994E-1,2.5268576E-1,-1.341908E-1,1.9404256E-1,3.0168208E-1,-3.1358233E-1,2.5356282E-2,1.7671809E-1,2.1852098E-1,2.7934885E-1,9.050941E-2,1.3312034E-1,3.071349E-1,3.0221114E-1,1.8717684E-1,8.392857E-2,3.6119363E-1,3.7237814E-1,1.1205222E-1,-7.37107E-2,2.640201E-1,2.7470967E-1,4.338604E-1,-1.961342E-1,3.714505E-1,2.0757826E-1,3.5371554E-1,1.7570052E-1,5.2657366E-2,4.214176E-1,2.1176226E-1,5.4858673E-2,1.7808835E-1,3.9619586E-1,1.9857313E-1,3.3319202E-1,4.282974E-1,-1.2205564E-1,2.420539E-1,2.2626078E-1,-8.446092E-2,-2.1447225E-1,2.957735E-2,2.9574972E-1,-1.0920868E-1,-2.2877155E-1,1.8069302E-1,3.464435E-1,-9.034482E-2,-9.020755E-2,3.4679267E-1,-1.5483274E-1,2.4176815E-1,1.3233696E-1,-2.1129616E-1,-6.275381E-2,3.3419767E-1,-2.4870758E-1,-1.0004806E-1,2.701063E-1,-2.118185E-1],"split_indices":[4,32,4,49,51,91,2,36,0,117,50,20,93,22,12,29,136,31,102,3,0,0,0,69,31,90,0,2,62,2,0,3,3,51,38,32,118,0,0,0,0,2,31,0,0,0,27,10,3,0,66,105,39,0,0,0,0,6,62,56,7,25,111,0,80,0,7,0,0,0,0,0,0,0,0,0,0,0,0,36,16,0,0,4,32,0,165,56,40,0,0,0,0,0,13,0,36,67,30,93,77,1,53,99,0,0,42,84,20,0,0,0,0,0,0,0,0,0,0,0,0,0,0,0,0,0,0,0,0,0,0,0,0],"split_type":[0,0,0,0,0,0,0,0,0,0,0,0,0,0,0,0,0,0,0,0,0,0,0,0,0,0,0,0,0,0,0,0,0,0,0,0,0,0,0,0,0,0,0,0,0,0,0,0,0,0,0,0,0,0,0,0,0,0,0,0,0,0,0,0,0,0,0,0,0,0,0,0,0,0,0,0,0,0,0,0,0,0,0,0,0,0,0,0,0,0,0,0,0,0,0,0,0,0,0,0,0,0,0,0,0,0,0,0,0,0,0,0,0,0,0,0,0,0,0,0,0,0,0,0,0,0,0,0,0,0,0,0,0],"sum_hessian":[1.8382467E3,1.422228E3,4.160187E2,2.1312029E2,1.2091077E3,9.082134E1,3.251974E2,1.3169615E2,8.142412E1,1.1525945E3,5.6513187E1,2.637616E1,6.444518E1,2.7221985E1,2.979754E2,7.63097E1,5.5386456E1,3.2175446E2,8.308401E2,1.0332961E1,4.618023E1,1.909689E1,7.2792687E0,1.4813094E1,4.9632088E1,1.00566225E1,1.7165363E1,3.3452915E1,2.645225E2,7.045642E1,5.85328E0,2.7812868E1,2.757359E1,2.8905315E1,2.9284912E2,7.016488E2,1.2919127E2,5.124391E0,5.20857E0,5.1446857E0,9.668408E0,2.3851065E1,2.5781021E1,5.0212507E0,5.035372E0,1.4791483E1,1.8661432E1,2.785134E1,2.3667114E2,5.5307056E1,1.5149364E1,1.4804661E1,1.3008207E1,2.1490494E1,6.083096E0,5.0374155E0,2.3867899E1,2.6598212E2,2.6867002E1,2.8664816E2,4.1500064E2,1.1769321E2,1.1498063E1,1.3693556E1,1.0157508E1,8.21382E0,1.7567202E1,1.001464E1,8.646793E0,1.8862286E1,8.989055E0,6.5498977E0,2.3012125E2,8.868397E0,6.2809677E0,5.113973E0,9.690687E0,7.9655547E0,5.0426526E0,3.700036E1,2.2898177E2,2.1399874E1,5.4671283E0,2.182812E2,6.836694E1,5.998698E0,4.0900195E2,4.088286E1,7.681035E1,6.428731E0,5.069332E0,5.126315E0,5.031193E0,6.5075083E0,1.1059693E1,6.8428793E0,3.015748E1,9.5893654E1,1.330881E2,1.8788512E2,3.0396088E1,3.135484E1,3.7012108E1,4.0139255E2,7.609396E0,6.213041E0,3.4669815E1,4.9139416E1,2.7670935E1,6.0496345E0,5.0100594E0,2.400302E1,6.154461E0,8.035085E1,1.5542803E1,2.1594074E1,1.1149403E2,1.82852E2,5.033122E0,8.938955E0,2.1457134E1,5.438507E0,2.5916332E1,2.4594315E1,1.2417792E1,6.624555E0,3.9476797E2,2.9047821E1,5.621996E0,4.0079475E1,9.059938E0,1.1892948E1,1.5777986E1],"tree_param":{"num_deleted":"0","num_feature":"187","num_nodes":"133","size_leaf_vector":"1"}},{"base_weights":[5.7853325E-3,-2.670169E-1,8.3506936E-1,6.271133E-1,-4.2154327E-1,4.783115E-1,1.0522418E0,8.873971E-1,-6.899411E-2,-4.921326E-1,1.0517302E0,2.5971597E-1,3.352937E-1,4.9065012E-1,1.108224E0,9.8271525E-1,-2.2310746E-1,8.170041E-1,-1.0280793E0,-2.5857133E-1,-7.5970113E-1,7.0934486E-1,2.5007734E-1,4.3154183E-1,-1.7338485E-1,-1.2556441E-1,2.4981022E-1,7.2861665E-1,1.1560258E0,1.1207137E0,-1.1560994E-1,1.2192044E0,-1.6759585E-1,-2.605414E-1,1.1723639E-3,1.0726471E0,-3.712086E-1,-1.0323935E0,-3.4631425E-1,1.0422869E0,-1.5144971E-3,3.4013912E-1,2.852251E-1,2.3791997E-1,2.3498192E-1,9.229308E-2,1.1738975E0,-9.4327825E-4,1.1853998E0,-2.01892E-1,2.7005205E-1,1.4893095E-1,2.724608E-1,2.8933424E-1,1.4494871E0,-5.055965E-1,6.4078814E-1,-1.12187E0,1.430546E-1,2.620867E-1,-8.725377E-1,8.189983E-2,2.8508165E-1,5.9707326E-1,-7.655853E-2,-6.992335E-2,2.2158697E-1,9.606993E-1,1.2020762E0,2.4466288E-1,8.211105E-1,2.3491831E-1,-1.1692536E-1,4.3201628E-1,1.2833287E0,-7.221986E-2,-8.3130085E-1,8.8071156E-1,-1.9216518E-1,-1.1491523E0,-0E0,2.7146736E-1,-7.8993434E-1,1.6041223E-2,1.5069242E0,-1.0403593E0,6.4973587E-1,7.714022E-2,1.2196143E0,3.9487952E-1,-8.489472E-1,7.8265995E-2,2.4225032E-1,2.4258459E-1,1.5853935E-1,6.883767E-2,2.3690267E-1,1.2542468E-1,1.4582528E0,-3.809219E-1,1.3277086E0,7.132383E-1,-8.956097E-1,1.324071E0,8.2605764E-2,-4.862085E-1,-1.1841551E0,-3.653241E-2,-2.5745672E-1,7.599252E-1,-5.548275E-1,4.4681975E-1,1.7909716E-1,1.2953882E-1,-1.2379067E0,2.5558576E-1,-0E0,-1.9783688E-1,2.9433486E-1,1.0392989E0,2.939229E-1,-1.340647E-1,8.3945525E-1,-1.1775035E0,-2.0943908E-2,2.4479659E-1,3.6974412E-1,1.6458789E-1,-1.149173E-1,3.0051228E-1,5.6502726E-2,3.6191237E-1,-6.432483E-2,-2.1185075E-1,-7.871721E-2,3.010219E-1,1.512942E-1,2.4924433E-1,-1.5204147E-1,-2.5394875E-1,8.609245E-2,-2.404265E-1,-6.074911E-2,-1.4680175E-1,2.1969977E-1,-1.7031904E-1,2.5226492E-1,-1.6208044E-1,3.263106E-1,-2.5778398E-1,-1.4366895E-1,1.9951247E-1,-1.2264152E-1,2.540308E-1,8.343347E-2,5.584536E-2,2.779252E-1,-2.9934844E-1,-1.5910837E-1],"categories":[],"categories_nodes":[],"categories_segments":[],"categories_sizes":[],"default_left":[0,0,0,0,0,0,0,0,0,0,0,0,0,0,0,0,0,0,0,0,0,0,0,0,0,0,0,0,0,0,0,0,0,0,0,0,0,0,0,0,0,0,0,0,0,0,0,0,0,0,0,0,0,0,0,0,0,0,0,0,0,0,0,0,0,0,0,0,0,0,0,0,0,0,0,0,0,0,0,0,0,0,0,0,0,0,0,0,0,0,0,0,0,0,0,0,0,0,0,0,0,0,0,0,0,0,0,0,0,0,0,0,0,0,0,0,0,0,0,0,0,0,0,0,0,0,0,0,0,0,0,0,0,0,0,0,0,0,0,0,0,0,0,0,0,0,0,0,0,0,0,0,0,0,0,0,0,0,0],"id":5,"left_children":[1,3,5,7,9,11,13,15,17,19,21,-1,23,25,27,29,-1,31,33,35,37,39,-1,41,-1,-1,-1,43,45,47,49,51,-1,-1,-1,53,55,57,59,61,-1,63,-1,-1,65,-1,67,-1,69,-1,-1,-1,-1,71,73,75,77,79,81,83,85,-1,-1,87,89,-1,-1,91,93,-1,95,-1,-1,-1,97,99,101,103,-1,105,-1,-1,107,109,111,113,115,117,119,121,123,-1,-1,-1,-1,-1,-1,-1,125,127,129,131,133,135,137,139,141,-1,-1,143,145,-1,-1,147,149,-1,-1,151,-1,153,-1,-1,155,157,-1,-1,-1,-1,-1,-1,-1,-1,-1,-1,-1,-1,-1,-1,-1,-1,-1,-1,-1,-1,-1,-1,-1,-1,-1,-1,-1,-1,-1,-1,-1,-1,-1,-1,-1],"loss_changes":[3.834459E2,1.7611035E2,3.217914E1,3.4172188E1,1.1297902E2,1.8329784E1,7.841095E0,2.6148895E1,4.3349636E1,6.463277E1,2.9370499E0,0E0,1.5651471E1,2.054026E1,3.8718567E0,2.0020966E1,0E0,1.7690565E1,7.239189E0,8.302488E1,5.417511E1,4.6697826E0,0E0,1.1074255E1,0E0,0E0,0E0,5.856514E0,2.2459412E0,8.702957E0,1.896609E1,9.7735214E-1,0E0,0E0,0E0,1.2363159E1,6.954284E1,3.0791077E1,6.1736988E1,2.7451525E0,0E0,1.2484978E1,0E0,0E0,6.97582E0,0E0,7.346802E-1,0E0,1.0622101E0,0E0,0E0,0E0,0E0,1.1173407E1,2.5893555E0,6.3571136E1,2.300553E1,8.357971E0,2.3344263E1,2.698523E1,2.6518578E1,0E0,0E0,2.2983408E1,1.6073477E1,0E0,0E0,3.2052631E0,3.4597778E-1,0E0,1.5859718E0,0E0,0E0,0E0,2.2696152E0,8.372733E1,2.565538E1,1.8164295E1,0E0,5.7645264E0,0E0,0E0,3.1698222E0,3.1734379E1,5.752323E0,2.1778084E1,4.0480995E0,1.5364391E1,8.872566E-1,1.2895958E1,3.8442087E0,0E0,0E0,0E0,0E0,0E0,0E0,0E0,9.660721E-1,3.7091755E1,6.0120354E0,1.1899475E1,2.0017532E1,2.9185066E0,1.8617693E1,9.973408E0,3.6452332E0,0E0,0E0,1.658085E1,2.264939E1,0E0,0E0,1.9104296E1,1.6704865E0,0E0,0E0,1.6242802E1,0E0,2.4397488E0,0E0,0E0,5.5878944E0,8.794327E-1,0E0,0E0,0E0,0E0,0E0,0E0,0E0,0E0,0E0,0E0,0E0,0E0,0E0,0E0,0E0,0E0,0E0,0E0,0E0,0E0,0E0,0E0,0E0,0E0,0E0,0E0,0E0,0E0,0E0,0E0,0E0,0E0,0E0,0E0,0E0],"parents":[2147483647,0,0,1,1,2,2,3,3,4,4,5,5,6,6,7,7,8,8,9,9,10,10,12,12,13,13,14,14,15,15,17,17,18,18,19,19,20,20,21,21,23,23,27,27,28,28,29,29,30,30,31,31,35,35,36,36,37,37,38,38,39,39,41,41,44,44,46,46,48,48,53,53,54,54,55,55,56,56,57,57,58,58,59,59,60,60,63,63,64,64,67,67,68,68,70,70,74,74,75,75,76,76,77,77,79,79,82,82,83,83,84,84,85,85,86,86,87,87,88,88,89,89,90,90,98,98,99,99,100,100,101,101,102,102,103,103,104,104,105,105,106,106,109,109,110,110,113,113,114,114,117,117,119,119,122,122,123,123],"right_children":[2,4,6,8,10,12,14,16,18,20,22,-1,24,26,28,30,-1,32,34,36,38,40,-1,42,-1,-1,-1,44,46,48,50,52,-1,-1,-1,54,56,58,60,62,-1,64,-1,-1,66,-1,68,-1,70,-1,-1,-1,-1,72,74,76,78,80,82,84,86,-1,-1,88,90,-1,-1,92,94,-1,96,-1,-1,-1,98,100,102,104,-1,106,-1,-1,108,110,112,114,116,118,120,122,124,-1,-1,-1,-1,-1,-1,-1,126,128,130,132,134,136,138,140,142,-1,-1,144,146,-1,-1,148,150,-1,-1,152,-1,154,-1,-1,156,158,-1,-1,-1,-1,-1,-1,-1,-1,-1,-1,-1,-1,-1,-1,-1,-1,-1,-1,-1,-1,-1,-1,-1,-1,-1,-1,-1,-1,-1,-1,-1,-1,-1,-1,-1],"split_conditions":[1.8796068E-1,2.2187218E-1,2.621016E-1,1.9192547E-1,4.8287442E-1,8.214721E-2,1.3846146E-1,2.8381348E-1,1.36344265E-2,1.5273005E-3,5.1979464E-1,2.5971597E-1,6.665925E-1,4.045139E-1,1.3420561E-1,2.8303796E-1,-2.2310746E-1,2.4948454E-1,9.3874305E-2,2.5846884E-1,1.8683651E-1,5.306352E-1,2.5007734E-1,5.9482574E-1,-1.7338485E-1,-1.2556441E-1,2.4981022E-1,1.1344262E-1,1.3806401E-1,4.7806352E-2,9.319556E-2,4.236928E-2,-1.6759585E-1,-2.605414E-1,1.1723639E-3,1.27E-1,4.102853E-1,1.5079059E-1,2.1487603E-1,8.073818E-3,-1.5144971E-3,3.1785518E-1,2.852251E-1,2.3791997E-1,9.090909E-2,9.229308E-2,1.11549854E-1,-9.4327825E-4,4.5210084E-1,-2.01892E-1,2.7005205E-1,1.4893095E-1,2.724608E-1,2.3561464E-1,1.18361965E-1,3.4114054E-1,4.625731E-1,1.8556343E-1,6.321243E-2,3.3035335E-1,4.8315984E-1,8.189983E-2,2.8508165E-1,1.487676E-1,2.005571E-1,-6.992335E-2,2.2158697E-1,2.741364E-1,8.044645E-1,2.4466288E-1,9.830915E-2,2.3491831E-1,-1.1692536E-1,4.3201628E-1,1.2281415E-1,2.1531837E-1,2.498707E-1,5.914115E-1,-1.9216518E-1,2.4952479E-2,-0E0,2.7146736E-1,1.8257365E-1,3.2956153E-1,1.759134E-1,4.7920817E-1,4.8059654E-1,1.7918089E-1,2.2533333E-1,5.124451E-2,2.2859418E-1,7.8265995E-2,2.4225032E-1,2.4258459E-1,1.5853935E-1,6.883767E-2,2.3690267E-1,1.2542468E-1,3.0700162E-3,3.2717925E-3,3.6532125E-1,7.974463E-2,3.7670454E-1,4.0026684E-3,1.3915548E-1,7.124464E-2,1.8990384E-1,-3.653241E-2,-2.5745672E-1,4.592774E-1,1.0416992E-1,4.4681975E-1,1.7909716E-1,2.936555E-1,5.3757226E-1,2.5558576E-1,-0E0,1.5641393E-1,2.9433486E-1,1.6928658E-1,2.939229E-1,-1.340647E-1,2.8915095E-1,9.99512E-1,-2.0943908E-2,2.4479659E-1,3.6974412E-1,1.6458789E-1,-1.149173E-1,3.0051228E-1,5.6502726E-2,3.6191237E-1,-6.432483E-2,-2.1185075E-1,-7.871721E-2,3.010219E-1,1.512942E-1,2.4924433E-1,-1.5204147E-1,-2.5394875E-1,8.609245E-2,-2.404265E-1,-6.074911E-2,-1.4680175E-1,2.1969977E-1,-1.7031904E-1,2.5226492E-1,-1.6208044E-1,3.263106E-1,-2.5778398E-1,-1.4366895E-1,1.9951247E-1,-1.2264152E-1,2.540308E-1,8.343347E-2,5.584536E-2,2.779252E-1,-2.9934844E-1,-1.5910837E-1],"split_indices":[4,32,4,35,69,65,2,29,137,130,72,0,97,22,47,3,0,3,21,31,58,23,0,34,0,0,0,57,3,47,25,82,0,0,0,41,38,4,6,87,0,25,0,0,96,0,67,0,79,0,0,0,0,32,48,29,108,57,85,103,103,0,0,59,116,0,0,48,108,0,42,0,0,0,72,42,25,26,0,107,0,0,41,29,124,35,24,113,41,94,3,0,0,0,0,0,0,0,114,108,33,89,23,122,85,3,84,0,0,1,159,0,0,70,116,0,0,35,0,8,0,0,77,0,0,0,0,0,0,0,0,0,0,0,0,0,0,0,0,0,0,0,0,0,0,0,0,0,0,0,0,0,0,0,0,0,0,0,0],"split_type":[0,0,0,0,0,0,0,0,0,0,0,0,0,0,0,0,0,0,0,0,0,0,0,0,0,0,0,0,0,0,0,0,0,0,0,0,0,0,0,0,0,0,0,0,0,0,0,0,0,0,0,0,0,0,0,0,0,0,0,0,0,0,0,0,0,0,0,0,0,0,0,0,0,0,0,0,0,0,0,0,0,0,0,0,0,0,0,0,0,0,0,0,0,0,0,0,0,0,0,0,0,0,0,0,0,0,0,0,0,0,0,0,0,0,0,0,0,0,0,0,0,0,0,0,0,0,0,0,0,0,0,0,0,0,0,0,0,0,0,0,0,0,0,0,0,0,0,0,0,0,0,0,0,0,0,0,0,0,0],"sum_hessian":[1.6943328E3,1.2747743E3,4.1955847E2,1.8763304E2,1.0871412E3,1.5916794E2,2.6039053E2,1.3676744E2,5.0865604E1,1.0375957E3,4.9545544E1,2.3363848E1,1.3580408E2,2.3972164E1,2.3641837E2,1.3067409E2,6.093358E0,2.6335695E1,2.4529911E1,5.544557E2,4.8314E2,1.8645414E1,3.0900127E1,1.2592138E2,9.882704E0,9.583514E0,1.4388649E1,2.6999916E1,2.0941846E2,1.1624911E2,1.4424976E1,2.129461E1,5.041085E0,1.9524418E1,5.005493E0,4.3082127E1,5.1137357E2,2.9077228E2,1.9236774E2,1.2907397E1,5.7380176E0,1.1556874E2,1.0352636E1,1.3715747E1,1.3284169E1,5.567748E0,2.0385071E2,6.152928E0,1.10096176E2,9.055295E0,5.3696814E0,5.329298E0,1.5965312E1,1.4195004E1,2.8887125E1,4.5162302E2,5.9750553E1,2.703642E2,2.0408056E1,8.905292E1,1.0331481E2,5.1035376E0,7.803859E0,7.177245E1,4.3796295E1,7.8368554E0,5.447314E0,2.4831263E1,1.7901944E2,9.911367E1,1.0982504E1,7.15707E0,7.037934E0,5.13274E0,2.3754385E1,1.9407082E2,2.575522E2,5.209417E1,7.6563816E0,2.640059E2,6.358333E0,8.950558E0,1.1457499E1,7.4532646E1,1.4520269E1,9.3188545E1,1.0126269E1,3.9314922E1,3.2457527E1,2.7050903E1,1.674539E1,7.871026E0,1.6960236E1,1.7382707E2,5.192367E0,5.029546E0,5.9529586E0,5.2883677E0,1.8466017E1,1.5915448E2,3.491633E1,1.0150385E1,2.4740181E2,3.330771E1,1.8786465E1,1.3564073E1,2.504418E2,5.370508E0,6.0869904E0,3.2507183E1,4.2025467E1,6.422408E0,8.097862E0,1.3318672E1,7.986987E1,5.0593443E0,5.066925E0,3.2755596E1,6.559326E0,1.9471415E1,1.2986114E1,7.825576E0,1.9225328E1,1.1410237E1,5.3351517E0,1.1990806E1,6.475211E0,2.188949E1,1.37265E2,2.972958E1,5.186749E0,5.0044985E0,5.1458864E0,1.8623962E2,6.1162186E1,2.4923353E1,8.384355E0,7.980999E0,1.0805465E1,7.4203568E0,6.1437154E0,2.4518974E2,5.252057E0,5.88609E0,2.6621094E1,3.624031E1,5.7851562E0,8.124398E0,5.1942744E0,7.2311035E1,7.5588365E0,8.30448E0,2.4451117E1,1.3929153E1,5.542262E0,9.743056E0,9.482271E0,5.8507295E0,5.5595083E0],"tree_param":{"num_deleted":"0","num_feature":"187","num_nodes":"159","size_leaf_vector":"1"}},{"base_weights":[1.0418294E-2,-2.3035325E-1,8.014586E-1,6.0348374E-1,-3.6790305E-1,4.3103114E-1,9.6961313E-1,7.031898E-1,-2.1382944E-1,-4.2743707E-1,1.0669662E0,2.3317742E-1,2.7700955E-1,7.494165E-1,1.1048186E0,4.2411223E-1,1.1578717E0,-1.0674998E-1,-5.874667E-1,8.8504374E-2,2.3918915E-1,2.3839228E-1,1.6590668E-1,1.0363009E0,2.389057E-1,7.2331953E-1,1.1341751E0,2.3197794E-1,4.7264393E-2,2.3782717E-1,1.5614973E-1,-2.507318E-1,7.3160106E-1,-4.6056274E-1,-9.335497E-1,-1.6203785E-1,5.95863E-1,5.996839E-1,2.3794699E-1,-2.8755653E-1,2.3884861E-1,2.9654253E-2,2.3379491E-1,1.486352E-1,2.3223372E-1,-5.978185E-1,4.1334268E-1,2.3932405E-1,-6.28824E-1,1.2698077E0,-1.2254537E-1,-5.782494E-1,1.4149263E0,-2.2210595E-1,-1.0143967E0,-4.2917335E-1,2.571648E-1,1.3558239E0,9.6749656E-2,-4.5008317E-2,2.3591502E-1,1.602146E-1,-6.4248E-1,6.1057944E-2,-9.343285E-1,6.876315E-1,-2.7661908E-1,9.264147E-1,-5.893955E-1,-9.1368204E-1,1.4998965E-1,9.29023E-1,2.9582492E-1,2.2987834E-1,-6.819266E-1,-6.507604E-1,4.172807E-1,1.5868877E-1,1.615238E0,1.1952019E-1,-2.2147703E-1,-1.0509309E0,-5.8392216E-2,-7.8955E-1,1.5016127E-1,3.279076E-1,1.9030201E-1,-1.7456101E-1,4.1322917E-1,-2.7594277E-1,-0E0,-2.508839E-1,-4.7407214E-2,1.0215755E0,-4.1870784E-2,7.830161E-3,1.0062248E0,2.3571368E-1,-8.7381274E-1,8.0927186E-2,-1.0033921E0,4.744938E-1,-3.6484385E-1,2.6371536E-1,8.722666E-2,-2.820269E-1,2.0375837E-2,-7.0854217E-1,6.4487857E-1,1.0277233E0,-1.9170074E-1,3.5273165E-1,2.221802E-1,-1.1375668E0,-7.81536E-1,-9.848825E-1,9.974942E-3,9.446571E-1,-1.097572E-1,2.5943357E-1,4.556246E-2,2.241464E-1,3.8402E-2,-2.1941213E-1,1.670126E-1,-2.1865392E-1,1.5350103E-2,2.2255841E-1,-1.814207E-1,-1.5261073E-1,9.156213E-2,3.385135E-1,-2.245401E-1,1.2384426E-1,2.8713688E-1,-9.286987E-2,-2.3405676E-1,9.243826E-2,-2.1581648E-1,-2.3103742E-2,-2.4564146E-1,7.278541E-2,2.867296E-1],"categories":[],"categories_nodes":[],"categories_segments":[],"categories_sizes":[],"default_left":[0,0,0,0,0,0,0,0,0,0,0,0,0,0,0,0,0,0,0,0,0,0,0,0,0,0,0,0,0,0,0,0,0,0,0,0,0,0,0,0,0,0,0,0,0,0,0,0,0,0,0,0,0,0,0,0,0,0,0,0,0,0,0,0,0,0,0,0,0,0,0,0,0,0,0,0,0,0,0,0,0,0,0,0,0,0,0,0,0,0,0,0,0,0,0,0,0,0,0,0,0,0,0,0,0,0,0,0,0,0,0,0,0,0,0,0,0,0,0,0,0,0,0,0,0,0,0,0,0,0,0,0,0,0,0,0,0,0,0,0,0,0,0],"id":6,"left_children":[1,3,5,7,9,11,13,15,-1,17,19,-1,21,23,25,27,29,31,33,-1,-1,-1,35,37,39,41,43,-1,45,-1,-1,47,49,51,53,55,57,59,-1,61,-1,-1,-1,-1,-1,63,65,67,69,71,73,75,77,79,81,83,-1,85,87,-1,-1,-1,89,-1,91,93,-1,95,97,99,101,103,-1,-1,105,107,109,-1,111,-1,-1,113,-1,115,-1,-1,-1,-1,117,-1,-1,-1,-1,119,-1,-1,121,-1,123,-1,125,-1,127,-1,-1,-1,-1,129,131,133,-1,-1,-1,135,137,139,-1,141,-1,-1,-1,-1,-1,-1,-1,-1,-1,-1,-1,-1,-1,-1,-1,-1,-1,-1,-1,-1,-1,-1,-1,-1,-1],"loss_changes":[2.8703357E2,1.3240517E2,2.1607422E1,2.7202354E1,8.458882E1,1.2176617E1,6.7775726E0,1.923587E1,0E0,4.872084E1,2.8173904E0,0E0,9.015551E0,1.3293213E1,1.2557068E0,2.6361217E1,2.4790192E-1,3.823027E1,2.7577057E1,0E0,0E0,0E0,1.1626592E1,3.5598373E0,1.7111603E1,2.615581E0,1.0297699E0,0E0,1.5014783E1,0E0,0E0,5.0326332E1,2.1538548E1,1.0249945E2,9.509827E0,1.7719362E1,1.3233836E1,7.7534823E0,0E0,8.334295E0,0E0,0E0,0E0,0E0,0E0,7.0931406E0,2.0040031E1,6.722602E1,3.4170654E1,1.4878731E0,1.2619719E1,3.1652283E1,2.8611832E0,1.294052E1,3.7341156E0,1.668324E1,0E0,1.007246E0,6.59823E0,0E0,0E0,0E0,8.018101E0,0E0,3.4459105E0,1.082917E1,0E0,4.364002E0,2.6811684E1,1.3438446E1,4.7255627E1,1.803503E0,0E0,0E0,7.4107356E0,3.0590439E1,2.4884825E1,0E0,8.545265E-1,0E0,0E0,2.9471588E0,0E0,5.1315613E0,0E0,0E0,0E0,0E0,8.582865E0,0E0,0E0,0E0,0E0,5.388468E0,0E0,0E0,5.233719E0,0E0,1.7675514E1,0E0,1.0443352E1,0E0,2.6600712E1,0E0,0E0,0E0,0E0,2.4930725E1,3.2251995E1,2.9770737E0,0E0,0E0,0E0,2.0414124E0,1.343894E1,4.9378986E0,0E0,2.691002E0,0E0,0E0,0E0,0E0,0E0,0E0,0E0,0E0,0E0,0E0,0E0,0E0,0E0,0E0,0E0,0E0,0E0,0E0,0E0,0E0,0E0,0E0,0E0,0E0,0E0],"parents":[2147483647,0,0,1,1,2,2,3,3,4,4,5,5,6,6,7,7,9,9,10,10,12,12,13,13,14,14,15,15,16,16,17,17,18,18,22,22,23,23,24,24,25,25,26,26,28,28,31,31,32,32,33,33,34,34,35,35,36,36,37,37,39,39,45,45,46,46,47,47,48,48,49,49,50,50,51,51,52,52,53,53,54,54,55,55,57,57,58,58,62,62,64,64,65,65,67,67,68,68,69,69,70,70,71,71,74,74,75,75,76,76,78,78,81,81,83,83,88,88,93,93,96,96,98,98,100,100,102,102,107,107,108,108,109,109,113,113,114,114,115,115,117,117],"right_children":[2,4,6,8,10,12,14,16,-1,18,20,-1,22,24,26,28,30,32,34,-1,-1,-1,36,38,40,42,44,-1,46,-1,-1,48,50,52,54,56,58,60,-1,62,-1,-1,-1,-1,-1,64,66,68,70,72,74,76,78,80,82,84,-1,86,88,-1,-1,-1,90,-1,92,94,-1,96,98,100,102,104,-1,-1,106,108,110,-1,112,-1,-1,114,-1,116,-1,-1,-1,-1,118,-1,-1,-1,-1,120,-1,-1,122,-1,124,-1,126,-1,128,-1,-1,-1,-1,130,132,134,-1,-1,-1,136,138,140,-1,142,-1,-1,-1,-1,-1,-1,-1,-1,-1,-1,-1,-1,-1,-1,-1,-1,-1,-1,-1,-1,-1,-1,-1,-1,-1],"split_conditions":[1.9156042E-1,2.2187218E-1,2.4605042E-1,2.612916E-1,5.144566E-1,4.5738045E-2,2.3910172E-1,1.2951095E-1,-2.1382944E-1,2.3474607E-3,3.65614E-1,2.3317742E-1,1.3915694E-1,2.8298044E-1,2.0365885E-2,1.2710911E-1,2.99117E-1,3.9136302E-1,8.436597E-1,8.8504374E-2,2.3918915E-1,2.3839228E-1,3.7197828E-1,1.190205E-1,4.0948993E-1,4.8796993E-1,1.6648784E-1,2.3197794E-1,8.333626E-2,2.3782717E-1,1.5614973E-1,3.4270334E-1,4E-1,4.968909E-1,3.116254E-1,2.3509175E-1,2.0682926E-1,1.2693554E-1,2.3794699E-1,1.25E-1,2.3884861E-1,2.9654253E-2,2.3379491E-1,1.486352E-1,2.3223372E-1,4.9045138E-2,2.580294E-1,1.02749996E-1,3.7670454E-1,3.1305903E-1,6.028789E-1,3.5512793E-1,9.699549E-1,1.9408147E-3,3.52323E-1,2.9111928E-3,2.571648E-1,1.4834206E-1,1.3440861E-1,-4.5008317E-2,2.3591502E-1,1.602146E-1,1.07355066E-1,6.1057944E-2,4.6701692E-2,5.3481694E-2,-2.7661908E-1,6.321359E-2,9.605493E-2,6.9255665E-2,2.3005094E-1,4.6207227E-2,2.9582492E-1,2.2987834E-1,6.45996E-1,2.4281488E-1,6.342667E-1,1.5868877E-1,2.5172892E-1,1.1952019E-1,-2.2147703E-1,3.5919228E-1,-5.8392216E-2,2.5964126E-1,1.5016127E-1,3.279076E-1,1.9030201E-1,-1.7456101E-1,1.7597598E-1,-2.7594277E-1,-0E0,-2.508839E-1,-4.7407214E-2,4.732235E-1,-4.1870784E-2,7.830161E-3,6.911666E-1,2.3571368E-1,2.6296064E-1,8.0927186E-2,3.7182742E-1,4.744938E-1,5.903219E-1,2.6371536E-1,8.722666E-2,-2.820269E-1,2.0375837E-2,2.1846609E-1,1.6993465E-1,7.015783E-2,-1.9170074E-1,3.5273165E-1,2.221802E-1,5.4856796E-2,2.4363992E-1,2.3895526E-2,9.974942E-3,1.4072657E-1,-1.097572E-1,2.5943357E-1,4.556246E-2,2.241464E-1,3.8402E-2,-2.1941213E-1,1.670126E-1,-2.1865392E-1,1.5350103E-2,2.2255841E-1,-1.814207E-1,-1.5261073E-1,9.156213E-2,3.385135E-1,-2.245401E-1,1.2384426E-1,2.8713688E-1,-9.286987E-2,-2.3405676E-1,9.243826E-2,-2.1581648E-1,-2.3103742E-2,-2.4564146E-1,7.278541E-2,2.867296E-1],"split_indices":[4,32,4,36,68,87,43,43,0,120,72,0,37,31,2,33,116,38,1,0,0,0,33,8,34,5,3,0,24,0,0,29,63,2,33,65,5,45,0,48,0,0,0,0,0,98,26,109,23,72,27,83,0,144,3,132,0,106,97,0,0,0,77,0,112,132,0,75,7,83,59,104,0,0,34,3,29,0,20,0,0,41,0,94,0,0,0,0,123,0,0,0,0,2,0,0,90,0,82,0,81,0,1,0,0,0,0,155,63,3,0,0,0,88,94,100,0,2,0,0,0,0,0,0,0,0,0,0,0,0,0,0,0,0,0,0,0,0,0,0,0,0,0],"split_type":[0,0,0,0,0,0,0,0,0,0,0,0,0,0,0,0,0,0,0,0,0,0,0,0,0,0,0,0,0,0,0,0,0,0,0,0,0,0,0,0,0,0,0,0,0,0,0,0,0,0,0,0,0,0,0,0,0,0,0,0,0,0,0,0,0,0,0,0,0,0,0,0,0,0,0,0,0,0,0,0,0,0,0,0,0,0,0,0,0,0,0,0,0,0,0,0,0,0,0,0,0,0,0,0,0,0,0,0,0,0,0,0,0,0,0,0,0,0,0,0,0,0,0,0,0,0,0,0,0,0,0,0,0,0,0,0,0,0,0,0,0,0,0],"sum_hessian":[1.5063563E3,1.154684E3,3.5167236E2,1.6327507E2,9.914089E2,1.1022512E2,2.4144724E2,1.5422993E2,9.045142E0,9.520807E2,3.9328194E1,1.8817501E1,9.1407616E1,9.2540855E1,1.4890637E2,9.590268E1,5.8327255E1,3.1738956E2,6.346911E2,7.0360236E0,3.2292168E1,9.650173E0,8.175745E1,5.8963005E1,3.3577854E1,1.1218039E1,1.3768834E2,3.2267433E1,6.3635242E1,5.327286E1,5.0543942E0,2.7110287E2,4.6286697E1,4.6490945E2,1.6978163E2,4.6134697E1,3.5622746E1,1.5735231E1,4.322777E1,2.1535683E1,1.204217E1,5.123008E0,6.0950303E0,9.462391E0,1.2822595E2,2.2829096E1,4.080615E1,1.17847206E2,1.5325566E2,2.8523537E1,1.776316E1,4.3759186E2,2.7317608E1,1.7596426E1,1.5218521E2,3.909487E1,7.0398254E0,1.3928451E1,2.1694296E1,6.366481E0,9.368751E0,5.140935E0,1.6394749E1,6.037166E0,1.679193E1,3.552432E1,5.281831E0,6.4557816E1,5.3289387E1,1.12394516E2,4.0861153E1,1.132041E1,1.7203127E1,5.3004866E0,1.2462673E1,4.0808646E2,2.9505396E1,6.962479E0,2.0355127E1,9.027719E0,8.568707E0,1.4457439E2,7.610824E0,3.009088E1,9.003992E0,7.804485E0,6.1239657E0,5.1615925E0,1.6532703E1,7.727944E0,8.666804E0,1.1284859E1,5.5070705E0,2.6044195E1,9.480122E0,5.540747E0,5.901707E1,7.265567E0,4.602382E1,7.0077925E0,1.0538672E2,7.7242937E0,3.313686E1,6.0495987E0,5.270811E0,6.57203E0,5.890643E0,3.9083344E2,1.7253029E1,2.0546728E1,8.958669E0,1.5324041E1,5.0310864E0,1.08710236E2,3.5864147E1,2.4596838E1,5.4940414E0,1.0784194E1,5.74851E0,1.9121567E1,6.922629E0,5.1508682E1,7.508387E0,4.0825325E1,5.1984944E0,9.746159E1,7.925125E0,8.782759E0,2.4354101E1,3.7356308E2,1.727034E1,1.0904768E1,6.3482614E0,1.057442E1,9.972308E0,5.356777E0,1.0335346E2,6.7885513E0,2.9075598E1,5.5747523E0,1.9022087E1,5.1565022E0,5.627692E0],"tree_param":{"num_deleted":"0","num_feature":"187","num_nodes":"143","size_leaf_vector":"1"}},{"base_weights":[1.4646818E-2,-1.8640442E-1,7.7054685E-1,5.531634E-1,-3.1248817E-1,4.3934035E-1,9.6023846E-1,2.2647958E-1,1.0873377E0,-3.6851242E-1,1.0287666E0,1.0594285E0,2.8903532E-1,4.1212997E-1,1.0194585E0,2.250911E-1,-1.37747E-1,7.397909E-1,2.3110254E-1,-1.6173562E-1,-6.355485E-1,1.20210245E-1,2.2607163E-1,1.311571E-1,2.3525524E-1,6.256241E-2,8.106763E-1,-1.1101607E-1,2.3325674E-1,7.9385054E-1,1.1176662E0,-2.8923246E-1,2.4350975E-1,5.1258296E-2,2.3232675E-1,7.513288E-1,-2.6998988E-1,-9.978914E-1,-4.1530904E-1,2.9085228E-1,-7.696434E-1,1.1637448E0,2.4749821E-1,5.182373E-1,2.2107863E-1,2.2634184E-1,1.5182458E-1,-6.6029423E-1,4.2491612E-1,-2.7617127E-1,1.2692536E0,-3.9370343E-1,6.406903E-1,1.0420092E-1,-1.0856922E0,3.353281E-1,-6.4372444E-1,8.357116E-1,-2.6267773E-1,-2.367268E-1,-2.3494132E-2,1.8274948E-1,2.8096357E-1,-1.3002034E-1,2.3298529E-1,7.5582606E-1,-7.778197E-2,-9.1810286E-1,1.0406897E-1,8.7929755E-1,-1.803471E-1,-9.4365144E-1,1.9710426E-1,1.0332767E0,3.805696E-1,-3.8655963E-2,-6.045058E-1,1.0300045E0,-9.4466604E-2,-1.7358519E-1,2.0755446E-1,-3.1523958E-2,-1.132031E0,-7.56581E-1,5.98508E-1,2.9275602E-1,-7.049824E-1,1.068604E0,7.854409E-3,1.6859072E-1,-7.1606994E-1,-7.0052217E-3,2.2607791E-1,-5.9412923E-2,-1.1570901E0,1.1289237E-1,2.679029E-1,-6.900811E-2,-2.7903533E-1,6.8437016E-1,2.5534877E-1,-2.6188856E-1,1.2254163E0,2.529343E-1,-6.4373285E-1,1.3162727E0,-6.449043E-2,2.5374782E-1,-6.7221975E-1,-1.1690516E0,-5.1012594E-2,-2.4953885E-1,-3.142149E-2,9.041836E-1,-4.1949993E-1,-8.250929E-1,3.166065E-1,2.5327703E-1,1.0195656E-1,-1.2106762E0,2.5463054E-2,-2.4812876E-1,-1.5755402E-1,2.5501764E-1,-0E0,-1.5509312E-1,4.82602E-2,3.018634E-1,6.904759E-2,-1.5870775E-1,-2.617603E-2,2.9601133E-1,2.3441105E-1,1.4310586E-2,-2.2988434E-1,-2.3940563E-1,-9.6133016E-2,8.811455E-2,2.8935328E-1,-2.4153812E-1,5.5970866E-2,-1.7573257E-1,7.883454E-2,2.6690814E-1,-2.0559345E-1,-3.2246622E-1,-1.4928293E-1],"categories":[],"categories_nodes":[],"categories_segments":[],"categories_sizes":[],"default_left":[0,0,0,0,0,0,0,0,0,0,0,0,0,0,0,0,0,0,0,0,0,0,0,0,0,0,0,0,0,0,0,0,0,0,0,0,0,0,0,0,0,0,0,0,0,0,0,0,0,0,0,0,0,0,0,0,0,0,0,0,0,0,0,0,0,0,0,0,0,0,0,0,0,0,0,0,0,0,0,0,0,0,0,0,0,0,0,0,0,0,0,0,0,0,0,0,0,0,0,0,0,0,0,0,0,0,0,0,0,0,0,0,0,0,0,0,0,0,0,0,0,0,0,0,0,0,0,0,0,0,0,0,0,0,0,0,0,0,0,0,0,0,0,0,0,0,0],"id":7,"left_children":[1,3,5,7,9,11,13,15,17,19,21,23,25,27,29,-1,31,33,-1,35,37,-1,-1,-1,-1,39,41,-1,-1,43,45,47,-1,-1,-1,49,51,53,55,57,59,61,63,65,-1,-1,-1,67,69,71,73,75,77,79,81,83,85,87,89,-1,-1,-1,-1,-1,-1,91,-1,93,-1,95,-1,97,-1,99,-1,101,103,105,107,-1,-1,-1,109,111,113,-1,115,117,-1,-1,119,-1,-1,-1,121,-1,-1,-1,-1,123,-1,125,127,-1,129,131,-1,-1,133,135,-1,-1,-1,137,139,141,143,-1,-1,145,-1,-1,-1,-1,-1,-1,-1,-1,-1,-1,-1,-1,-1,-1,-1,-1,-1,-1,-1,-1,-1,-1,-1,-1,-1,-1,-1],"loss_changes":[2.1177496E2,1.0252432E2,1.8095566E1,2.7644314E1,7.0518776E1,9.697689E0,5.722122E0,3.280825E1,1.0109406E0,4.9666443E1,1.2517395E0,5.674858E-1,1.0046339E1,1.3668003E1,3.2796478E0,0E0,1.4357058E1,1.850553E0,0E0,5.0235542E1,3.109114E1,0E0,0E0,0E0,0E0,1.1440461E1,4.8585014E0,0E0,0E0,4.0706825E0,1.6197205E-1,1.6969921E1,0E0,0E0,0E0,2.883609E1,5.126754E1,1.455632E1,4.2098385E1,1.4550678E1,3.2113938E0,4.1854095E-1,8.599813E0,6.073886E0,0E0,0E0,0E0,1.2946577E1,1.3094291E1,1.5142292E1,4.681225E0,2.98933E1,1.5729797E1,9.901976E0,5.6494446E0,1.6374899E1,2.4189857E1,4.283127E0,1.1825988E1,0E0,0E0,0E0,0E0,0E0,0E0,6.797307E0,0E0,4.8554153E0,0E0,1.9394665E0,0E0,2.833212E0,0E0,1.8146286E0,0E0,4.2107555E1,1.8345413E1,1.4032101E1,1.4622866E1,0E0,0E0,0E0,3.947281E0,2.9322615E0,1.4466307E1,0E0,2.2564423E1,1.6686573E0,0E0,0E0,7.2653856E0,0E0,0E0,0E0,3.1295395E-1,0E0,0E0,0E0,0E0,4.834616E0,0E0,3.3073856E1,5.1917305E0,0E0,1.8733688E1,8.1417084E-2,0E0,0E0,4.9203663E0,2.048462E0,0E0,0E0,0E0,8.554165E0,6.0082645E0,1.0819489E1,2.6283878E1,0E0,0E0,1.4808178E0,0E0,0E0,0E0,0E0,0E0,0E0,0E0,0E0,0E0,0E0,0E0,0E0,0E0,0E0,0E0,0E0,0E0,0E0,0E0,0E0,0E0,0E0,0E0,0E0,0E0,0E0,0E0],"parents":[2147483647,0,0,1,1,2,2,3,3,4,4,5,5,6,6,7,7,8,8,9,9,10,10,11,11,12,12,13,13,14,14,16,16,17,17,19,19,20,20,25,25,26,26,29,29,30,30,31,31,35,35,36,36,37,37,38,38,39,39,40,40,41,41,42,42,43,43,47,47,48,48,49,49,50,50,51,51,52,52,53,53,54,54,55,55,56,56,57,57,58,58,65,65,67,67,69,69,71,71,73,73,75,75,76,76,77,77,78,78,82,82,83,83,84,84,86,86,87,87,90,90,94,94,99,99,101,101,102,102,104,104,105,105,108,108,109,109,113,113,114,114,115,115,116,116,119,119],"right_children":[2,4,6,8,10,12,14,16,18,20,22,24,26,28,30,-1,32,34,-1,36,38,-1,-1,-1,-1,40,42,-1,-1,44,46,48,-1,-1,-1,50,52,54,56,58,60,62,64,66,-1,-1,-1,68,70,72,74,76,78,80,82,84,86,88,90,-1,-1,-1,-1,-1,-1,92,-1,94,-1,96,-1,98,-1,100,-1,102,104,106,108,-1,-1,-1,110,112,114,-1,116,118,-1,-1,120,-1,-1,-1,122,-1,-1,-1,-1,124,-1,126,128,-1,130,132,-1,-1,134,136,-1,-1,-1,138,140,142,144,-1,-1,146,-1,-1,-1,-1,-1,-1,-1,-1,-1,-1,-1,-1,-1,-1,-1,-1,-1,-1,-1,-1,-1,-1,-1,-1,-1,-1,-1],"split_conditions":[2.0289855E-1,2.2187218E-1,2.7177826E-1,1.23070925E-1,4.718398E-1,7.075636E-2,1.3846146E-1,1.2710911E-1,1.2951095E-1,1.5273005E-3,4.9936467E-1,1.5301551E-1,2.6522186E-1,4.045139E-1,1.182016E-1,2.250911E-1,1.7768595E-1,8.3909184E-2,2.3110254E-1,2.6957682E-1,1.2521619E-1,1.20210245E-1,2.2607163E-1,1.311571E-1,2.3525524E-1,3.810082E-1,5.118715E-1,-1.1101607E-1,2.3325674E-1,3.1003883E-1,3.2320994E-1,1.3491836E-1,2.4350975E-1,5.1258296E-2,2.3232675E-1,1.3536918E-1,3.8573882E-1,2.9036162E-2,3.6100817E-1,1.7247596E-1,1.6858974E-1,3.0148187E-1,5.308465E-1,3.622312E-1,2.2107863E-1,2.2634184E-1,1.5182458E-1,1.4992741E-1,2.73774E-1,1.00447536E-1,9.062104E-2,3.2674515E-1,5.741879E-1,1.2201341E-1,3.70972E-2,1.1070585E-1,7.602837E-2,3.48419E-1,3.155842E-1,-2.367268E-1,-2.3494132E-2,1.8274948E-1,2.8096357E-1,-1.3002034E-1,2.3298529E-1,1.105309E-1,-7.778197E-2,1.706817E-1,1.0406897E-1,1.5209876E-1,-1.803471E-1,2.549514E-1,1.9710426E-1,1.6251221E-1,3.805696E-1,2.2029361E-1,4.225352E-2,4.1244123E-3,2.5373134E-1,-1.7358519E-1,2.0755446E-1,-3.1523958E-2,1.6142736E-1,1.0490308E-1,3.344017E-1,2.9275602E-1,4.3300653E-1,1.6545455E-1,7.854409E-3,1.6859072E-1,2.550471E-1,-7.0052217E-3,2.2607791E-1,-5.9412923E-2,5.9794456E-2,1.1289237E-1,2.679029E-1,-6.900811E-2,-2.7903533E-1,8.740602E-2,2.5534877E-1,2.6773456E-1,1.943839E-1,2.529343E-1,2.8396437E-1,6.256078E-1,-6.449043E-2,2.5374782E-1,6.3462895E-1,1.566151E-1,-5.1012594E-2,-2.4953885E-1,-3.142149E-2,9.99512E-1,8.972693E-2,2.0241547E-1,4.4119966E-1,2.5327703E-1,1.0195656E-1,3.0456853E-1,2.5463054E-2,-2.4812876E-1,-1.5755402E-1,2.5501764E-1,-0E0,-1.5509312E-1,4.82602E-2,3.018634E-1,6.904759E-2,-1.5870775E-1,-2.617603E-2,2.9601133E-1,2.3441105E-1,1.4310586E-2,-2.2988434E-1,-2.3940563E-1,-9.6133016E-2,8.811455E-2,2.8935328E-1,-2.4153812E-1,5.5970866E-2,-1.7573257E-1,7.883454E-2,2.6690814E-1,-2.0559345E-1,-3.2246622E-1,-1.4928293E-1],"split_indices":[4,32,4,48,50,78,2,33,43,130,51,26,82,22,80,0,113,97,0,31,95,0,0,0,0,3,34,0,0,48,140,26,0,0,0,40,39,112,34,7,40,36,20,11,0,0,0,103,27,4,120,28,25,3,116,2,7,3,31,0,0,0,0,0,0,9,0,34,0,4,0,31,0,48,0,42,83,127,86,0,0,0,51,103,31,0,103,67,0,0,15,0,0,0,10,0,0,0,0,11,0,28,125,0,95,1,0,0,1,6,0,0,0,0,137,163,20,0,0,23,0,0,0,0,0,0,0,0,0,0,0,0,0,0,0,0,0,0,0,0,0,0,0,0,0,0,0],"split_type":[0,0,0,0,0,0,0,0,0,0,0,0,0,0,0,0,0,0,0,0,0,0,0,0,0,0,0,0,0,0,0,0,0,0,0,0,0,0,0,0,0,0,0,0,0,0,0,0,0,0,0,0,0,0,0,0,0,0,0,0,0,0,0,0,0,0,0,0,0,0,0,0,0,0,0,0,0,0,0,0,0,0,0,0,0,0,0,0,0,0,0,0,0,0,0,0,0,0,0,0,0,0,0,0,0,0,0,0,0,0,0,0,0,0,0,0,0,0,0,0,0,0,0,0,0,0,0,0,0,0,0,0,0,0,0,0,0,0,0,0,0,0,0,0,0,0,0],"sum_hessian":[1.3926227E3,1.0998596E3,2.9276312E2,1.5994087E2,9.399187E2,1.0705769E2,1.8570543E2,9.9522026E1,6.0418854E1,9.024104E2,3.7508324E1,2.0568531E1,8.648917E1,1.847608E1,1.6722935E2,2.8823965E1,7.069806E1,1.0486458E1,4.9932396E1,5.0905658E2,3.933538E2,7.643309E0,2.9865015E1,5.076013E0,1.5492518E1,6.0613102E1,2.5876064E1,7.9842257E0,1.0491855E1,5.1473167E1,1.1575618E2,6.375848E1,6.939577E0,5.144511E0,5.3419466E0,5.3729927E1,4.5532666E2,1.4829343E2,2.4506038E2,4.777921E1,1.2833893E1,1.5653869E1,1.0222196E1,2.7722754E1,2.3750414E1,1.1075274E2,5.0034447E0,4.214457E1,2.1613913E1,1.7885145E1,3.584478E1,4.010879E2,5.423876E1,1.0773617E1,1.375198E2,5.696346E1,1.8809692E2,2.4247427E1,2.353178E1,7.637987E0,5.1959057E0,8.209549E0,7.4443197E0,5.0641074E0,5.1580887E0,2.2150246E1,5.5725074E0,3.473929E1,7.405279E0,1.6224571E1,5.38934E0,1.1808926E1,6.07622E0,2.6443367E1,9.401413E0,1.4979724E2,2.5129065E2,3.562498E1,1.8613781E1,5.174598E0,5.5990186E0,6.7555666E0,1.3076424E2,1.0897415E1,4.6066044E1,5.1883507E0,1.8290857E2,1.8553783E1,5.693644E0,6.7026877E0,1.6829092E1,6.962023E0,1.5188224E1,9.917206E0,2.4822083E1,9.958106E0,6.266466E0,5.305842E0,6.503083E0,1.1284234E1,1.5159134E1,1.2748203E2,2.2315208E1,5.02835E0,2.462623E2,2.9524815E1,6.1001654E0,5.4198065E0,1.31939745E1,1.252329E2,5.531332E0,5.7769823E0,5.1204324E0,3.5583496E1,1.0482549E1,1.6384978E2,1.9058798E1,1.3392596E1,5.161187E0,1.0743749E1,6.085344E0,1.9704668E1,5.1174145E0,6.188673E0,5.095561E0,6.3273144E1,6.420889E1,1.6674046E1,5.641164E0,1.9026729E2,5.5995007E1,1.2958392E1,1.6566423E1,5.0095005E0,8.184474E0,1.2002741E2,5.2054896E0,1.943577E1,1.6147726E1,5.0456276E0,5.4369206E0,1.5712433E2,6.7254486E0,1.0931799E1,8.126999E0,5.463004E0,5.280744E0],"tree_param":{"num_deleted":"0","num_feature":"187","num_nodes":"147","size_leaf_vector":"1"}},{"base_weights":[1.9851057E-2,-1.338739E-1,7.965351E-1,7.469803E-1,-2.1998698E-1,5.285392E-1,1.0032892E0,3.2019886E-1,1.0576572E0,1.3943145E-1,-3.897065E-1,-1.4802052E-1,6.4947486E-1,1.0571032E0,6.686077E-1,9.381429E-1,-4.325678E-1,2.2793917E-1,4.4400435E-2,1.2355174E-2,1.0448283E0,-4.7462666E-1,9.828003E-2,2.2511767E-1,4.669458E-1,1.1677207E-1,1.094434E0,-5.956164E-2,2.2199725E-1,6.220777E-2,2.2244923E-1,1.585387E-1,-1.100888E0,5.305003E-1,-1.631079E-1,2.2439711E-1,1.01567864E-1,-3.59354E-1,-8.2647914E-1,-3.8019475E-2,1.0801986E0,-3.1792784E-1,7.777381E-1,1.2428732E-1,2.2392431E-1,-3.336559E-1,-6.467407E-2,3.9489932E-2,1.1351371E0,-4.1758457E-1,4.0424594E-1,-4.3985844E-1,1.0725766E0,-1.676457E-1,-9.6427023E-1,5.080142E-1,-4.6636522E-1,2.7885088E-1,1.5126692E-1,-2.622437E-1,1.4402077E-1,-6.3021354E-2,9.454921E-1,2.8814763E-1,-2.5904807E-1,1.6701359E-1,2.3699038E-1,3.7798133E-1,-5.717132E-1,-5.051463E-2,1.0310576E0,-7.17505E-1,-2.0415372E-1,-4.3899685E-2,1.4848787E0,-4.8455983E-1,1.8117908E-1,-2.128421E-2,-1.0036689E0,3.0694327E-1,2.1195583E-1,-8.970375E-1,-2.8503915E-2,1.0583603E0,1.05009474E-1,-2.0242749E-1,5.999399E-1,8.969018E-1,-1.0474682E-1,-6.500112E-1,1.7139368E-1,1.0691302E0,-7.166989E-1,1.8627838E0,2.3155585E-1,-8.3786494E-1,1.0105042E0,2.3051257E-1,-5.369016E-1,2.0427047E-1,3.3216032E-1,-1.9861335E-2,-2.3214336E-1,-1.0921373E0,-6.615389E-1,-1.2633954E-1,2.866285E-1,-1.0677804E0,-4.8284523E-2,1.0279868E0,-9.817076E-1,1.2266749E-1,2.282512E-1,-1.1284578E-1,2.0697005E-1,3.298957E-1,-6.313284E-3,-1.5292059E-1,2.7344102E-2,5.612774E-2,3.5185194E-1,-2.398304E-1,1.1373905E-2,4.940195E-1,2.8464317E-1,2.0861213E-1,-1.838343E-1,-2.1025443E-1,-7.5423226E-2,3.2416365E-1,3.5386067E-2,-8.1727795E-2,1.4438349E-1,3.3673367E-1,-1.3189302E-1,1.1150165E-1,-1.4505048E-1,-2.283695E-1,-1.5622465E-1,1.4712821E-1,-2.353928E-1,1.5042898E-1,-9.600487E-2,-2.3603766E-1,-1.451889E-1,2.8172687E-1,1.0964515E-1,-2.4407831E-1,-1.17670156E-1],"categories":[],"categories_nodes":[],"categories_segments":[],"categories_sizes":[],"default_left":[0,0,0,0,0,0,0,0,0,0,0,0,0,0,0,0,0,0,0,0,0,0,0,0,0,0,0,0,0,0,0,0,0,0,0,0,0,0,0,0,0,0,0,0,0,0,0,0,0,0,0,0,0,0,0,0,0,0,0,0,0,0,0,0,0,0,0,0,0,0,0,0,0,0,0,0,0,0,0,0,0,0,0,0,0,0,0,0,0,0,0,0,0,0,0,0,0,0,0,0,0,0,0,0,0,0,0,0,0,0,0,0,0,0,0,0,0,0,0,0,0,0,0,0,0,0,0,0,0,0,0,0,0,0,0,0,0,0,0,0,0,0,0,0,0,0,0,0,0],"id":8,"left_children":[1,3,5,7,9,11,13,15,17,19,21,-1,23,25,27,29,31,-1,-1,33,35,37,39,-1,41,-1,43,-1,-1,-1,-1,-1,45,47,49,-1,-1,51,53,55,57,59,61,-1,-1,-1,-1,63,65,67,69,71,73,75,77,79,81,-1,-1,-1,-1,-1,83,85,-1,-1,-1,87,89,91,93,95,97,-1,99,101,-1,-1,103,-1,105,107,109,111,-1,-1,113,115,-1,117,-1,119,121,123,125,127,129,131,133,-1,-1,135,-1,137,139,141,-1,143,-1,145,147,-1,-1,-1,-1,-1,-1,-1,-1,-1,-1,-1,-1,-1,-1,-1,-1,-1,-1,-1,-1,-1,-1,-1,-1,-1,-1,-1,-1,-1,-1,-1,-1,-1,-1,-1,-1,-1,-1],"loss_changes":[1.4987059E2,7.92991E1,1.1160477E1,1.2041019E1,5.823135E1,1.3946222E1,1.7198105E0,1.8509531E1,3.3854332E0,3.4945E1,2.693991E1,0E0,6.8790855E0,1.3965912E0,7.346887E0,2.0859222E0,1.4606814E1,0E0,0E0,2.4461672E1,1.1957397E0,2.2156685E1,1.302873E1,0E0,1.485668E1,0E0,7.143631E-1,0E0,0E0,0E0,0E0,0E0,4.685729E0,1.9994835E1,2.8902077E1,0E0,0E0,4.7929832E1,1.2100296E1,1.9643757E1,7.229185E-1,1.7701475E1,8.119356E0,0E0,0E0,0E0,0E0,1.2376694E1,2.746582E-4,1.7021547E1,1.7798824E1,2.5636086E1,1.2021906E1,8.039481E0,3.5617523E0,1.0800012E1,8.730995E0,0E0,0E0,0E0,0E0,0E0,1.4540443E0,1.2948296E1,0E0,0E0,0E0,1.0524639E1,1.2982594E1,2.6555645E1,1.6947332E1,3.761103E1,3.100663E1,0E0,7.526398E-1,5.595153E0,0E0,0E0,2.8505173E0,0E0,1.2135673E1,2.367981E0,2.3938889E1,7.006607E-1,0E0,0E0,1.3297478E1,1.0320091E1,0E0,1.0075035E1,0E0,6.753171E0,8.625529E0,2.432209E0,1.26906395E1,1.632769E1,5.572053E0,2.9138258E1,3.290104E1,0E0,0E0,4.626426E0,0E0,8.763275E-1,1.6382515E1,6.926031E0,0E0,2.8577805E-1,0E0,1.6117582E0,7.85347E-1,0E0,0E0,0E0,0E0,0E0,0E0,0E0,0E0,0E0,0E0,0E0,0E0,0E0,0E0,0E0,0E0,0E0,0E0,0E0,0E0,0E0,0E0,0E0,0E0,0E0,0E0,0E0,0E0,0E0,0E0,0E0,0E0,0E0,0E0,0E0,0E0,0E0,0E0],"parents":[2147483647,0,0,1,1,2,2,3,3,4,4,5,5,6,6,7,7,8,8,9,9,10,10,12,12,13,13,14,14,15,15,16,16,19,19,20,20,21,21,22,22,24,24,26,26,32,32,33,33,34,34,37,37,38,38,39,39,40,40,41,41,42,42,47,47,48,48,49,49,50,50,51,51,52,52,53,53,54,54,55,55,56,56,62,62,63,63,67,67,68,68,69,69,70,70,71,71,72,72,74,74,75,75,78,78,80,80,81,81,82,82,83,83,86,86,87,87,89,89,91,91,92,92,93,93,94,94,95,95,96,96,97,97,98,98,101,101,103,103,104,104,105,105,107,107,109,109,110,110],"right_children":[2,4,6,8,10,12,14,16,18,20,22,-1,24,26,28,30,32,-1,-1,34,36,38,40,-1,42,-1,44,-1,-1,-1,-1,-1,46,48,50,-1,-1,52,54,56,58,60,62,-1,-1,-1,-1,64,66,68,70,72,74,76,78,80,82,-1,-1,-1,-1,-1,84,86,-1,-1,-1,88,90,92,94,96,98,-1,100,102,-1,-1,104,-1,106,108,110,112,-1,-1,114,116,-1,118,-1,120,122,124,126,128,130,132,134,-1,-1,136,-1,138,140,142,-1,144,-1,146,148,-1,-1,-1,-1,-1,-1,-1,-1,-1,-1,-1,-1,-1,-1,-1,-1,-1,-1,-1,-1,-1,-1,-1,-1,-1,-1,-1,-1,-1,-1,-1,-1,-1,-1,-1,-1,-1,-1],"split_conditions":[2.2827938E-1,1.773399E-1,2.462555E-1,9.477459E-2,5.3368914E-3,1.3846146E-1,3.201559E-1,7.303311E-1,2.1821706E-1,4.4241315E-1,4.379085E-1,-1.4802052E-1,1.5566382E-1,2.0365885E-2,4.2480212E-1,4.950045E-2,1.2710911E-1,2.2793917E-1,4.4400435E-2,2.849664E-1,3.5275915E-1,8.4172225E-1,4.715686E-1,2.2511767E-1,1.2981243E-1,1.1677207E-1,2.2102748E-1,-5.956164E-2,2.2199725E-1,6.220777E-2,2.2244923E-1,1.585387E-1,9.185185E-2,1.6666667E-1,2.5599793E-1,2.2439711E-1,1.01567864E-1,5.089729E-1,3.204244E-1,2.8212616E-1,3.7265712E-1,1.4594401E-1,1.7718991E-2,1.2428732E-1,2.2392431E-1,-3.336559E-1,-6.467407E-2,3.0438903E-1,3.226976E-2,8.528428E-2,3.467628E-1,1.471116E-1,4.3477993E-2,1.3840653E-1,3.7326913E-2,7.738815E-2,3.064745E-1,2.7885088E-1,1.5126692E-1,-2.622437E-1,1.4402077E-1,-6.3021354E-2,3.3602518E-1,1.2581581E-1,-2.5904807E-1,1.6701359E-1,2.3699038E-1,9.5977195E-2,2.9144096E-1,1.2440646E-1,3.1785715E-1,2.2680186E-1,3.3566192E-1,-4.3899685E-2,7.285379E-2,2.1386223E-3,1.8117908E-1,-2.128421E-2,3.552989E-1,3.0694327E-1,1.490566E-1,2.0800981E-1,4.521241E-1,1.6506922E-1,1.05009474E-1,-2.0242749E-1,4.0497627E-2,3.686747E-1,-1.0474682E-1,3.5991186E-1,1.7139368E-1,1.1552795E-1,2.6158816E-1,3.283635E-1,5.0930536E-1,1.3440861E-1,6.972128E-1,1.4114523E-1,1.4165606E-1,2.0427047E-1,3.3216032E-1,9.77828E-1,-2.3214336E-1,3.043478E-1,2.4074075E-1,2.629083E-1,2.866285E-1,3.492647E-1,-4.8284523E-2,2.908726E-1,4.360068E-1,1.2266749E-1,2.282512E-1,-1.1284578E-1,2.0697005E-1,3.298957E-1,-6.313284E-3,-1.5292059E-1,2.7344102E-2,5.612774E-2,3.5185194E-1,-2.398304E-1,1.1373905E-2,4.940195E-1,2.8464317E-1,2.0861213E-1,-1.838343E-1,-2.1025443E-1,-7.5423226E-2,3.2416365E-1,3.5386067E-2,-8.1727795E-2,1.4438349E-1,3.3673367E-1,-1.3189302E-1,1.1150165E-1,-1.4505048E-1,-2.283695E-1,-1.5622465E-1,1.4712821E-1,-2.353928E-1,1.5042898E-1,-9.600487E-2,-2.3603766E-1,-1.451889E-1,2.8172687E-1,1.0964515E-1,-2.4407831E-1,-1.17670156E-1],"split_indices":[4,33,43,44,117,2,117,1,23,38,101,0,33,2,50,77,33,0,0,31,111,1,106,0,21,0,52,0,0,0,0,0,89,48,98,0,0,2,34,25,8,42,73,0,0,0,0,27,4,83,22,106,126,78,108,59,84,0,0,0,0,0,25,27,0,0,0,106,105,86,65,3,29,0,129,142,0,0,42,0,97,97,22,23,0,0,4,28,0,83,0,47,84,37,24,97,1,89,70,0,0,0,0,102,6,34,0,34,0,120,88,0,0,0,0,0,0,0,0,0,0,0,0,0,0,0,0,0,0,0,0,0,0,0,0,0,0,0,0,0,0,0,0,0,0,0,0,0,0],"split_type":[0,0,0,0,0,0,0,0,0,0,0,0,0,0,0,0,0,0,0,0,0,0,0,0,0,0,0,0,0,0,0,0,0,0,0,0,0,0,0,0,0,0,0,0,0,0,0,0,0,0,0,0,0,0,0,0,0,0,0,0,0,0,0,0,0,0,0,0,0,0,0,0,0,0,0,0,0,0,0,0,0,0,0,0,0,0,0,0,0,0,0,0,0,0,0,0,0,0,0,0,0,0,0,0,0,0,0,0,0,0,0,0,0,0,0,0,0,0,0,0,0,0,0,0,0,0,0,0,0,0,0,0,0,0,0,0,0,0,0,0,0,0,0,0,0,0,0,0,0],"sum_hessian":[1.254038E3,1.0466616E3,2.0737633E2,9.296922E1,9.536924E2,9.081134E1,1.1656499E2,3.9480103E1,5.3489117E1,3.0551907E2,6.481733E2,7.7371526E0,8.307419E1,9.981077E1,1.6754215E1,2.1820826E1,1.7659279E1,4.8472874E1,5.0162416E0,2.6815408E2,3.736498E1,5.524469E2,9.572643E1,2.2647038E1,6.0427147E1,7.750281E0,9.2060486E1,5.1158943E0,1.163832E1,5.021589E0,1.6799236E1,6.1237574E0,1.15355215E1,6.809808E1,2.0005602E2,3.229741E1,5.0675716E0,4.1662363E2,1.3582326E2,8.39217E1,1.1804736E1,1.6957664E1,4.3469482E1,5.120794E0,8.69397E1,6.4870806E0,5.0484414E0,3.7792103E1,3.0305979E1,1.3836191E2,6.1694107E1,3.9461246E2,2.2011158E1,2.3763391E1,1.1205986E2,3.668337E1,4.7238327E1,5.5957046E0,6.209032E0,8.757317E0,8.200347E0,5.6201954E0,3.784929E1,3.2016533E1,5.77557E0,5.012895E0,2.5293083E1,2.2232767E1,1.16129135E2,3.5595776E1,2.6098333E1,1.8074939E2,2.1386308E2,5.2129817E0,1.6798178E1,1.851223E1,5.251162E0,5.151646E0,1.0690822E2,8.012399E0,2.8670969E1,2.3557959E1,2.368037E1,2.9404188E1,8.445099E0,6.0465393E0,2.5969994E1,1.4252681E1,7.9800854E0,1.10253975E2,5.8751583E0,1.3155345E1,2.244043E1,1.2636186E1,1.3462148E1,1.6911183E2,1.1637545E1,9.2476265E1,1.2138681E2,5.0278387E0,1.1770338E1,1.1177554E1,7.3346753E0,8.439187E1,2.2516344E1,2.2358288E1,6.3126817E0,1.8423424E1,5.134534E0,1.1130288E1,1.2550082E1,5.061935E0,2.4342255E1,6.9340873E0,1.9035906E1,7.9695134E0,6.283167E0,9.6459724E1,1.3794253E1,6.308195E0,6.84715E0,1.396308E1,8.47735E0,5.017697E0,7.618489E0,7.9993815E0,5.4627657E0,1.1523825E2,5.387359E1,6.5527186E0,5.0848265E0,4.0022263E1,5.2454002E1,6.2307777E0,1.1515604E2,5.996396E0,5.181158E0,7.209253E1,1.2299341E1,5.9575686E0,1.6558777E1,6.239292E0,1.6118996E1,1.3331761E1,5.0916634E0,5.919785E0,5.2105026E0,7.428807E0,5.1212754E0],"tree_param":{"num_deleted":"0","num_feature":"187","num_nodes":"149","size_leaf_vector":"1"}},{"base_weights":[1.3858817E-2,-1.27824E-1,8.2947814E-1,6.6677487E-1,-2.1412393E-1,5.74819E-1,9.639389E-1,7.629297E-1,-1.6875051E-1,1.5542154E-1,-3.6134547E-1,6.901299E-1,-3.1028865E-2,3.336271E-1,1.0358102E0,3.4369108E-1,1.0862099E0,4.088025E-3,1.0601492E0,-4.7723165E-1,-3.5334487E-2,2.2129436E-1,3.8455248E-1,-7.1225986E-2,2.0538394E-1,1.0740734E0,5.798902E-2,9.968773E-1,-3.9089116E-1,2.2341275E-1,1.5712969E-1,4.6305612E-1,-2.7683774E-1,1.2321106E-1,2.3320305E-1,-6.3625896E-1,-2.0210479E-1,4.8476318E-1,-4.0270478E-1,1.9758843E-2,9.9252546E-1,2.1896537E-1,1.3890006E-1,2.2556615E-1,1.12195015E-1,1.4134207E-1,-2.8228176E-1,8.979273E-1,-1.6324723E-1,-5.5693924E-1,3.6121905E-1,-9.592169E-1,-3.8689885E-1,-3.943729E-1,6.6953295E-1,-7.0346575E-3,1.5835319E0,5.296631E-2,-7.962618E-1,-1.3154691E-1,4.9799073E-1,2.3110448E-1,1.5074562E-1,-1.7555347E-1,2.140872E-1,-3.9044227E-2,1.0624193E0,1.8925522E-1,-5.5377614E-1,-1.0761338E0,-2.8210256E-1,2.9876253E-1,3.338069E-2,-1.0138572E0,4.388735E-2,3.783833E-1,-7.197681E-1,2.7766332E-1,-5.0382674E-1,1.3337831E0,-0E0,-4.793332E-1,5.981734E-1,1.8965551E0,2.252461E-1,-4.4315195E-1,1.0192167E0,-9.7476274E-1,1.597966E-1,2.2261E-1,-4.442404E-2,9.2930086E-2,1.1638938E0,9.221519E-2,-8.588024E-1,-1.2051498E0,-7.662441E-2,-6.7901486E-1,5.768124E-1,-9.572583E-1,5.854186E-1,-1.0627576E0,-0E0,-8.0899554E-1,7.2931504E-1,-8.491676E-1,2.971972E-1,2.377785E-1,-6.5919524E-1,3.9735255E-1,6.078123E-2,2.0504382E-1,-1.11416474E-1,-8.6694145E-1,1.3538213E-1,-1.5529846E-1,1.3567288E0,2.8378353E-1,4.6701598E-1,-8.378462E-1,1.49541E-1,5.973143E-2,2.7192184E-1,-1.075296E0,-6.3341886E-2,1.5723757E-1,2.4545155E-1,-2.2496188E-1,-1.395375E-2,-1.6568737E-1,-2.5649905E-1,1.2164982E-2,-1.7688334E-1,2.92944E-1,-1.1901926E-1,-2.536387E-1,-1.1325202E-1,2.2727619E-1,-1.0359633E-1,-2.2316578E-1,-1.1011141E-1,-2.5274935E-1,-6.1019745E-2,3.12657E-1,8.548814E-2,-1.8989477E-1,5.8783628E-2,1.8236282E-1,-1.0945646E-1,-1.6426837E-1,2.1966639E-1,-1.953773E-1,-8.068236E-2,-2.3846102E-1,-8.001802E-2,1.5608129E-1,-2.2293873E-1,4.5789883E-1,7.283275E-2,-1.4687962E-2,-2.0978968E-1,-1.0089345E-1,-2.3748961E-1],"categories":[],"categories_nodes":[],"categories_segments":[],"categories_sizes":[],"default_left":[0,0,0,0,0,0,0,0,0,0,0,0,0,0,0,0,0,0,0,0,0,0,0,0,0,0,0,0,0,0,0,0,0,0,0,0,0,0,0,0,0,0,0,0,0,0,0,0,0,0,0,0,0,0,0,0,0,0,0,0,0,0,0,0,0,0,0,0,0,0,0,0,0,0,0,0,0,0,0,0,0,0,0,0,0,0,0,0,0,0,0,0,0,0,0,0,0,0,0,0,0,0,0,0,0,0,0,0,0,0,0,0,0,0,0,0,0,0,0,0,0,0,0,0,0,0,0,0,0,0,0,0,0,0,0,0,0,0,0,0,0,0,0,0,0,0,0,0,0,0,0,0,0,0,0,0,0,0,0,0,0,0,0],"id":9,"left_children":[1,3,5,7,9,11,13,15,-1,17,19,21,-1,23,25,27,29,31,33,35,37,-1,39,-1,-1,41,-1,43,45,-1,-1,47,49,-1,-1,51,53,55,57,59,61,-1,-1,-1,-1,63,-1,65,67,69,71,73,75,77,79,81,83,85,87,-1,89,-1,-1,-1,-1,-1,91,-1,93,95,97,-1,99,101,-1,103,105,-1,107,109,111,113,115,117,-1,119,121,123,-1,-1,-1,-1,125,-1,127,129,-1,131,133,135,137,139,-1,141,143,145,147,149,151,-1,-1,-1,-1,153,-1,155,157,-1,-1,159,-1,-1,-1,161,-1,-1,-1,-1,-1,-1,-1,-1,-1,-1,-1,-1,-1,-1,-1,-1,-1,-1,-1,-1,-1,-1,-1,-1,-1,-1,-1,-1,-1,-1,-1,-1,-1,-1,-1,-1,-1,-1,-1],"loss_changes":[1.3175856E2,6.644648E1,5.4437943E0,1.3790001E1,4.767073E1,5.0751247E0,4.686058E0,1.179945E1,0E0,3.3884842E1,2.3562775E1,6.1896E0,0E0,5.7015834E0,2.517456E0,1.8961987E1,4.0477753E-2,2.7583715E1,1.2765999E0,2.002584E1,3.147809E1,0E0,6.4189696E0,0E0,0E0,3.386383E-1,0E0,8.248615E-1,1.0233231E1,0E0,0E0,2.2321081E1,2.3686321E1,0E0,0E0,2.3234978E1,2.838873E1,3.7066338E1,1.751427E1,6.114064E0,2.4051666E-3,0E0,0E0,0E0,0E0,1.1428499E1,0E0,8.856415E0,1.4336149E1,1.2862001E1,1.4603819E1,8.341377E0,4.2179672E1,2.7020384E1,1.3454763E1,1.3397925E1,2.316803E0,2.1557173E1,1.4935623E1,0E0,5.1917915E0,0E0,0E0,0E0,0E0,0E0,2.200325E0,0E0,7.7535434E0,2.4868507E0,2.06899E1,0E0,1.7088753E1,5.98011E0,0E0,2.0824448E1,1.5304455E1,0E0,1.5220371E1,9.764357E0,8.799526E0,1.1970233E1,1.1908396E1,1.6442375E0,0E0,1.38781185E1,3.4033117E0,2.8188133E0,0E0,0E0,0E0,0E0,4.02565E-1,0E0,3.78304E0,2.937622E-1,0E0,6.4906673E0,2.0000364E1,9.468889E-1,1.2482798E1,2.7840118E0,0E0,2.253387E0,9.312904E0,1.1901047E1,6.7854548E0,2.0658869E1,8.544552E0,0E0,0E0,0E0,0E0,2.7020273E0,0E0,9.217706E0,8.964861E0,0E0,0E0,3.3616476E0,0E0,0E0,0E0,2.2277145E0,0E0,0E0,0E0,0E0,0E0,0E0,0E0,0E0,0E0,0E0,0E0,0E0,0E0,0E0,0E0,0E0,0E0,0E0,0E0,0E0,0E0,0E0,0E0,0E0,0E0,0E0,0E0,0E0,0E0,0E0,0E0,0E0,0E0,0E0,0E0,0E0,0E0,0E0,0E0],"parents":[2147483647,0,0,1,1,2,2,3,3,4,4,5,5,6,6,7,7,9,9,10,10,11,11,13,13,14,14,15,15,16,16,17,17,18,18,19,19,20,20,22,22,25,25,27,27,28,28,31,31,32,32,35,35,36,36,37,37,38,38,39,39,40,40,45,45,47,47,48,48,49,49,50,50,51,51,52,52,53,53,54,54,55,55,56,56,57,57,58,58,60,60,66,66,68,68,69,69,70,70,72,72,73,73,75,75,76,76,78,78,79,79,80,80,81,81,82,82,83,83,85,85,86,86,87,87,92,92,94,94,95,95,97,97,98,98,99,99,100,100,101,101,103,103,104,104,105,105,106,106,107,107,108,108,113,113,115,115,116,116,119,119,123,123],"right_children":[2,4,6,8,10,12,14,16,-1,18,20,22,-1,24,26,28,30,32,34,36,38,-1,40,-1,-1,42,-1,44,46,-1,-1,48,50,-1,-1,52,54,56,58,60,62,-1,-1,-1,-1,64,-1,66,68,70,72,74,76,78,80,82,84,86,88,-1,90,-1,-1,-1,-1,-1,92,-1,94,96,98,-1,100,102,-1,104,106,-1,108,110,112,114,116,118,-1,120,122,124,-1,-1,-1,-1,126,-1,128,130,-1,132,134,136,138,140,-1,142,144,146,148,150,152,-1,-1,-1,-1,154,-1,156,158,-1,-1,160,-1,-1,-1,162,-1,-1,-1,-1,-1,-1,-1,-1,-1,-1,-1,-1,-1,-1,-1,-1,-1,-1,-1,-1,-1,-1,-1,-1,-1,-1,-1,-1,-1,-1,-1,-1,-1,-1,-1,-1,-1,-1,-1],"split_conditions":[2.3937908E-1,1.8674242E-1,1.830931E-1,2.9307944E-1,3.992016E-3,4.9691993E-1,4.123675E-1,9.6412554E-2,-1.6875051E-1,3.640596E-1,2.955247E-1,4.8303965E-2,-3.1028865E-2,3.0975142E-1,2.6554352E-1,1.1846367E-1,1.773399E-1,3.312794E-1,3.4377646E-1,9.8393574E-2,1.7914526E-1,2.2129436E-1,9.782932E-2,-7.1225986E-2,2.0538394E-1,6.915055E-1,5.798902E-2,8.0705774E-1,1.1181103E-1,2.2341275E-1,1.5712969E-1,8.5031085E-2,2.5151885E-1,1.2321106E-1,2.3320305E-1,1.2839507E-1,2.64374E-1,2.0615266E-1,4.0013227E-1,1.0904336E-1,1.596906E-1,2.1896537E-1,1.3890006E-1,2.2556615E-1,1.12195015E-1,1.194487E-1,-2.8228176E-1,1.6044776E-1,2.7991804E-1,2.4497041E-1,1.7769292E-1,1.5876526E-1,3.6100817E-1,1.9908321E-1,3.5618556E-1,1.1782297E-1,1.7633587E-1,3.8719067E-1,4.718398E-1,-1.3154691E-1,1.4424802E-1,2.3110448E-1,1.5074562E-1,-1.7555347E-1,2.140872E-1,-3.9044227E-2,3.346311E-2,1.8925522E-1,1.0715919E-1,2.2239915E-1,1.01901576E-1,2.9876253E-1,3.3491254E-1,1.854667E-1,4.388735E-2,1.1070585E-1,2.2057319E-1,2.7766332E-1,6.840252E-2,3.8322175E-1,1.1865285E-1,9.53159E-2,9.8222874E-2,3.8782582E-1,2.252461E-1,3.285594E-1,3.610437E-1,4.8751643E-1,1.597966E-1,2.2261E-1,-4.442404E-2,9.2930086E-2,9.436308E-1,9.221519E-2,2.2536945E-1,1.03815936E-1,-7.662441E-2,1.337386E-1,3.6694512E-1,1.1187958E-1,6.972128E-1,2.1642168E-1,-0E0,1.5741627E-1,1.0645432E-1,3.131524E-1,2.9289636E-1,1.7703862E-1,8.70779E-2,3.9735255E-1,6.078123E-2,2.0504382E-1,-1.11416474E-1,1.5501793E-1,1.3538213E-1,9.635599E-2,1.296426E-1,2.8378353E-1,4.6701598E-1,1.9848667E-1,1.49541E-1,5.973143E-2,2.7192184E-1,3.2563454E-1,-6.3341886E-2,1.5723757E-1,2.4545155E-1,-2.2496188E-1,-1.395375E-2,-1.6568737E-1,-2.5649905E-1,1.2164982E-2,-1.7688334E-1,2.92944E-1,-1.1901926E-1,-2.536387E-1,-1.1325202E-1,2.2727619E-1,-1.0359633E-1,-2.2316578E-1,-1.1011141E-1,-2.5274935E-1,-6.1019745E-2,3.12657E-1,8.548814E-2,-1.8989477E-1,5.8783628E-2,1.8236282E-1,-1.0945646E-1,-1.6426837E-1,2.1966639E-1,-1.953773E-1,-8.068236E-2,-2.3846102E-1,-8.001802E-2,1.5608129E-1,-2.2293873E-1,4.5789883E-1,7.283275E-2,-1.4687962E-2,-2.0978968E-1,-1.0089345E-1,-2.3748961E-1],"split_indices":[4,33,63,29,116,10,1,48,0,10,101,91,0,80,146,36,33,29,70,4,6,0,114,0,0,107,0,1,65,0,0,106,97,0,0,58,110,105,20,8,129,0,0,0,0,3,0,28,32,37,6,91,34,35,2,3,112,104,50,0,61,0,0,0,0,0,4,0,13,16,3,0,21,96,0,2,155,0,72,34,117,96,116,34,0,83,39,108,0,0,0,0,0,0,38,9,0,85,52,112,1,102,0,50,117,80,156,3,123,0,0,0,0,81,0,63,9,0,0,114,0,0,0,114,0,0,0,0,0,0,0,0,0,0,0,0,0,0,0,0,0,0,0,0,0,0,0,0,0,0,0,0,0,0,0,0,0,0,0,0,0,0,0],"split_type":[0,0,0,0,0,0,0,0,0,0,0,0,0,0,0,0,0,0,0,0,0,0,0,0,0,0,0,0,0,0,0,0,0,0,0,0,0,0,0,0,0,0,0,0,0,0,0,0,0,0,0,0,0,0,0,0,0,0,0,0,0,0,0,0,0,0,0,0,0,0,0,0,0,0,0,0,0,0,0,0,0,0,0,0,0,0,0,0,0,0,0,0,0,0,0,0,0,0,0,0,0,0,0,0,0,0,0,0,0,0,0,0,0,0,0,0,0,0,0,0,0,0,0,0,0,0,0,0,0,0,0,0,0,0,0,0,0,0,0,0,0,0,0,0,0,0,0,0,0,0,0,0,0,0,0,0,0,0,0,0,0,0,0],"sum_hessian":[1.1388717E3,9.7014325E2,1.687285E2,9.478305E1,8.7536017E2,5.8909428E1,1.0981908E2,8.925833E1,5.524718E0,2.4899318E2,6.26367E2,5.1112072E1,7.7973566E0,1.1554139E1,9.826494E1,3.9175842E1,5.0082493E1,2.1354488E2,3.54483E1,4.6163446E2,1.6473254E2,2.1302448E1,2.9809624E1,5.659419E0,5.89472E0,9.31939E1,5.0710354E0,2.0871466E1,1.8304377E1,4.4693295E1,5.389197E0,8.133755E1,1.3220734E2,7.2530165E0,2.8195284E1,2.9203906E2,1.695954E2,6.79596E1,9.6772934E1,1.886869E1,1.0940933E1,8.777371E1,5.420191E0,1.56359415E1,5.235524E0,1.1929729E1,6.3746467E0,4.818095E1,3.3156597E1,9.209724E1,4.0110096E1,1.2683053E2,1.6520854E2,1.3915668E2,3.0438713E1,4.68553E1,2.1104305E1,4.463194E1,5.2141E1,7.626929E0,1.1241761E1,5.8906527E0,5.0502806E0,5.5879207E0,6.3418083E0,6.1415367E0,4.2039413E1,8.480252E0,2.4676344E1,3.1575123E1,6.0522114E1,8.827065E0,3.128303E1,1.2138023E2,5.4502983E0,4.9893456E1,1.1531509E2,7.9102283E0,1.3124646E2,1.5195878E1,1.5242836E1,2.6508884E1,2.0346415E1,1.217547E1,8.928835E0,2.9371378E1,1.5260561E1,4.7024033E1,5.1169643E0,6.1982126E0,5.043549E0,6.427285E0,3.561213E1,5.5453067E0,1.9131037E1,2.6345005E1,5.2301173E0,4.156013E1,1.8961985E1,1.105167E1,2.023136E1,1.15757355E2,5.622877E0,1.1237192E1,3.865626E1,1.0248032E2,1.2834766E1,2.2506172E1,1.0874028E2,9.152319E0,6.043559E0,5.4013805E0,9.841455E0,1.999233E1,6.516555E0,1.0095087E1,1.0251328E1,6.147513E0,6.0279574E0,2.2197176E1,7.174202E0,5.114777E0,1.0145783E1,4.0500927E1,6.5231066E0,5.665771E0,2.9946358E1,1.41020565E1,5.0289807E0,5.0278893E0,2.1317116E1,8.827115E0,3.2733013E1,1.087819E1,8.083796E0,5.808704E0,5.2429667E0,1.3613484E1,6.617876E0,1.0448212E2,1.1275239E1,5.6583786E0,5.5788136E0,1.00421E1,2.8614162E1,9.438172E1,8.098602E0,7.563126E0,5.27164E0,9.985929E0,1.2520244E1,4.808914E1,6.065114E1,1.1483212E1,8.509117E0,5.009829E0,5.085258E0,5.147306E0,5.1040225E0,5.0231223E0,1.7174053E1,6.9886174E0,3.351231E1],"tree_param":{"num_deleted":"0","num_feature":"187","num_nodes":"163","size_leaf_vector":"1"}},{"base_weights":[3.459547E-3,-1.4896128E-1,5.8296704E-1,8.5605603E-1,-2.0217201E-1,4.3952277E-1,1.0479027E0,2.081987E-1,4.8696328E-2,3.933407E-3,-4.1047E-1,6.488621E-1,4.85801E-2,1.5005623E-1,2.1523464E-1,6.249015E-1,-1.3272725E-1,-7.841975E-1,-2.0276481E-1,3.0489984E-1,1.0304804E0,9.799271E-1,-3.7271816E-1,3.921235E-2,1.0739217E0,-2.9764846E-1,6.700537E-1,-9.533854E-1,1.0766623E-1,